<?xml version="1.0"?>
<opencv_storage>
<cascade>
  <stageType>BOOST</stageType>
  <featureType>LBP</featureType>
  <height>128</height>
  <width>90</width>
  <stageParams>
    <boostType>GAB</boostType>
    <minHitRate>9.9500000476837158e-01</minHitRate>
    <maxFalseAlarm>5.0000000000000000e-01</maxFalseAlarm>
    <weightTrimRate>9.4999999999999996e-01</weightTrimRate>
    <maxDepth>1</maxDepth>
    <maxWeakCount>100</maxWeakCount></stageParams>
  <featureParams>
    <maxCatCount>256</maxCatCount>
    <featSize>1</featSize></featureParams>
  <stageNum>15</stageNum>
  <stages>
    <!-- stage 0 -->
    <_>
      <maxWeakCount>6</maxWeakCount>
      <stageThreshold>-1.4431272745132446e+00</stageThreshold>
      <weakClassifiers>
        <_>
          <internalNodes>
            0 -1 14 -137363506 -33559597 1376111494 2002213727
            -305401665 1408209595 1298137071 1946153983</internalNodes>
          <leafValues>
            -6.8031120300292969e-01 4.7004294395446777e-01</leafValues></_>
        <_>
          <internalNodes>
            0 -1 193 -805634081 -1537 -787057 502661087 266919855
            -411905 -1049633 1610088447</internalNodes>
          <leafValues>
            -5.0030064582824707e-01 4.8760640621185303e-01</leafValues></_>
        <_>
          <internalNodes>
            0 -1 148 -596164589 -73796737 -494004739 -11489 -27377664
            -11588897 -356856098 -252784641</internalNodes>
          <leafValues>
            -5.0489288568496704e-01 4.8167842626571655e-01</leafValues></_>
        <_>
          <internalNodes>
            0 -1 53 -1935416414 -1345689632 -237247665 -2886448
            -35918885 1871677057 2070641663 -605554699</internalNodes>
          <leafValues>
            -5.2462232112884521e-01 4.2182406783103943e-01</leafValues></_>
        <_>
          <internalNodes>
            0 -1 9 -621488658 -791228766 -2051455591 1280726020
            -1827710378 -770813393 1464601382 1602180199</internalNodes>
          <leafValues>
            -5.5705660581588745e-01 3.5474479198455811e-01</leafValues></_>
        <_>
          <internalNodes>
            0 -1 172 1190461311 -1073884369 -102908653 221567747
            1257699815 -88382477 -1052898 183762943</internalNodes>
          <leafValues>
            -5.2202731370925903e-01 3.3614942431449890e-01</leafValues></_></weakClassifiers></_>
    <!-- stage 1 -->
    <_>
      <maxWeakCount>7</maxWeakCount>
      <stageThreshold>-1.2098675966262817e+00</stageThreshold>
      <weakClassifiers>
        <_>
          <internalNodes>
            0 -1 24 -137625650 -212639453 323744174 -251138257
            -766531073 325006251 1155125195 1465883311</internalNodes>
          <leafValues>
            -6.9039869308471680e-01 2.6776158809661865e-01</leafValues></_>
        <_>
          <internalNodes>
            0 -1 5 713206688 -1885148288 -794307628 -202389760
            -606112769 -1153187597 -593497477 -69212203</internalNodes>
          <leafValues>
            -6.7114043235778809e-01 3.0477219820022583e-01</leafValues></_>
        <_>
          <internalNodes>
            0 -1 155 -46997248 -1593577139 -1589460794 690676171
            -2137997280 -1039548407 -1467289087 -1490290689</internalNodes>
          <leafValues>
            -5.0339454412460327e-01 3.6862725019454956e-01</leafValues></_>
        <_>
          <internalNodes>
            0 -1 171 1070645231 -43033 1984942019 164666813 1306582671
            -1847001378 -6300147 267647407</internalNodes>
          <leafValues>
            -5.3666716814041138e-01 3.5385552048683167e-01</leafValues></_>
        <_>
          <internalNodes>
            0 -1 143 -564278194 -671109025 -2077848990 1356715391
            -629477376 -1308589933 -889200514 -789317905</internalNodes>
          <leafValues>
            -4.5275869965553284e-01 3.8935306668281555e-01</leafValues></_>
        <_>
          <internalNodes>
            0 -1 43 -11862066 -546581842 1870249358 -32717362 1159434716
            21604953 -873477188 -539194412</internalNodes>
          <leafValues>
            -4.9909380078315735e-01 3.6912557482719421e-01</leafValues></_>
        <_>
          <internalNodes>
            0 -1 192 -269090881 -2305569 -275306719 529595703
            -1897612293 -135398977 -67113010 267567039</internalNodes>
          <leafValues>
            -4.4046744704246521e-01 3.8484367728233337e-01</leafValues></_></weakClassifiers></_>
    <!-- stage 2 -->
    <_>
      <maxWeakCount>9</maxWeakCount>
      <stageThreshold>-1.1269989013671875e+00</stageThreshold>
      <weakClassifiers>
        <_>
          <internalNodes>
            0 -1 12 -69230042 -532993 545300640 1910627319 -204734993
            -241329734 1152128751 -237634561</internalNodes>
          <leafValues>
            -6.2409824132919312e-01 2.4164426326751709e-01</leafValues></_>
        <_>
          <internalNodes>
            0 -1 189 -805961809 -76546561 -6425745 -806241321 1240529915
            -1057985 -3670173 1542586363</internalNodes>
          <leafValues>
            -4.5240753889083862e-01 4.2520290613174438e-01</leafValues></_>
        <_>
          <internalNodes>
            0 -1 146 -59883497 -144836710 1686755149 1536678807
            -353398754 1787435691 -88413526 -254087425</internalNodes>
          <leafValues>
            -4.5018905401229858e-01 3.8418895006179810e-01</leafValues></_>
        <_>
          <internalNodes>
            0 -1 17 -411053114 -16551522 285599693 1931949967
            -1656369477 -218255288 290399807 870036171</internalNodes>
          <leafValues>
            -4.9687308073043823e-01 3.1973978877067566e-01</leafValues></_>
        <_>
          <internalNodes>
            0 -1 178 1207107583 -70517249 -1120583893 197721567
            160485259 -59053062 -148918421 198328251</internalNodes>
          <leafValues>
            -4.7911062836647034e-01 3.2857897877693176e-01</leafValues></_>
        <_>
          <internalNodes>
            0 -1 28 -1566055450 -965852446 -1517588446 2137522068
            -219421709 -1376987715 1128902755 -704649401</internalNodes>
          <leafValues>
            -4.4380256533622742e-01 3.3845117688179016e-01</leafValues></_>
        <_>
          <internalNodes>
            0 -1 151 -1305216606 385921792 -1107887311 -279052320
            -1397395 656588784 -23339552 -101851175</internalNodes>
          <leafValues>
            -3.4966492652893066e-01 4.0131226181983948e-01</leafValues></_>
        <_>
          <internalNodes>
            0 -1 36 -6330272 1511355598 -928586228 206594956 1414414404
            443044726 13256783 -286101922</internalNodes>
          <leafValues>
            -5.1629424095153809e-01 2.6675820350646973e-01</leafValues></_>
        <_>
          <internalNodes>
            0 -1 186 1341521271 -285223425 -36306984 257548101 197156859
            -1078263974 -536872162 267632511</internalNodes>
          <leafValues>
            -4.4815850257873535e-01 3.1016173958778381e-01</leafValues></_></weakClassifiers></_>
    <!-- stage 3 -->
    <_>
      <maxWeakCount>10</maxWeakCount>
      <stageThreshold>-1.5669338703155518e+00</stageThreshold>
      <weakClassifiers>
        <_>
          <internalNodes>
            0 -1 22 -812912661 -271670334 -440140816 -35914812
            -444858373 -337655401 -33564681 -4205577</internalNodes>
          <leafValues>
            -5.3180831670761108e-01 2.8578004240989685e-01</leafValues></_>
        <_>
          <internalNodes>
            0 -1 188 -808255525 -264197 -170690741 223412223 197328831
            -524817 -1310917 267647987</internalNodes>
          <leafValues>
            -4.7518107295036316e-01 3.1859636306762695e-01</leafValues></_>
        <_>
          <internalNodes>
            0 -1 118 1018833920 2147150045 -191300584 -54600983
            1827041280 -13899617 751206030 -1602554113</internalNodes>
          <leafValues>
            -6.4279401302337646e-01 2.4397149682044983e-01</leafValues></_>
        <_>
          <internalNodes>
            0 -1 86 889696492 864924665 291088396 834116155 -1173583890
            587639147 -1471174266 857715855</internalNodes>
          <leafValues>
            -6.2343305349349976e-01 2.5955408811569214e-01</leafValues></_>
        <_>
          <internalNodes>
            0 -1 174 -957286657 -1275475977 -665104443 231856981
            301329019 -145237033 -100928177 1207295967</internalNodes>
          <leafValues>
            -4.3994808197021484e-01 3.2169348001480103e-01</leafValues></_>
        <_>
          <internalNodes>
            0 -1 33 -14691793 1484440454 303752704 -902151630 1731876386
            1651384595 -14484922 -473704665</internalNodes>
          <leafValues>
            -3.9100563526153564e-01 3.7136620283126831e-01</leafValues></_>
        <_>
          <internalNodes>
            0 -1 95 1933386479 1600452575 1440690830 -1612907784
            1202622617 1930176926 1661775766 -9913912</internalNodes>
          <leafValues>
            -3.9102047681808472e-01 3.0988332629203796e-01</leafValues></_>
        <_>
          <internalNodes>
            0 -1 63 -380109849 -4393505 2143125001 1741092093
            -1261764609 -100849171 -153171201 1777719279</internalNodes>
          <leafValues>
            -3.1870624423027039e-01 3.8334307074546814e-01</leafValues></_>
        <_>
          <internalNodes>
            0 -1 161 -830499838 -548753105 -896037366 12838663
            1801064450 143499289 -1568497074 -150995749</internalNodes>
          <leafValues>
            -3.9560940861701965e-01 3.2942935824394226e-01</leafValues></_>
        <_>
          <internalNodes>
            0 -1 78 -1974850528 -1574555118 -1895119404 402100624
            -70395406 -1080389141 -1348813316 -582134411</internalNodes>
          <leafValues>
            -5.5045163631439209e-01 2.0038785040378571e-01</leafValues></_></weakClassifiers></_>
    <!-- stage 4 -->
    <_>
      <maxWeakCount>10</maxWeakCount>
      <stageThreshold>-1.7335377931594849e+00</stageThreshold>
      <weakClassifiers>
        <_>
          <internalNodes>
            0 -1 51 -136314913 -134153 -1837057 -3333 -4718593
            -589439029 -134217729 2145385471</internalNodes>
          <leafValues>
            -5.8354979753494263e-01 3.2054635882377625e-01</leafValues></_>
        <_>
          <internalNodes>
            0 -1 75 -168036694 -208449033 -1802401304 -207749671
            -259460164 -190717269 -785818883 1975386047</internalNodes>
          <leafValues>
            -5.4924690723419189e-01 3.0849689245223999e-01</leafValues></_>
        <_>
          <internalNodes>
            0 -1 18 -823731068 -931865311 -725400408 1549297728
            -570736481 -15939441 -606125089 1597464439</internalNodes>
          <leafValues>
            -5.9341806173324585e-01 2.6302301883697510e-01</leafValues></_>
        <_>
          <internalNodes>
            0 -1 153 1480213504 -14780180 -803268138 1582070862
            -208782312 -611657086 -1945567424 -893716577</internalNodes>
          <leafValues>
            -6.1474728584289551e-01 2.3925973474979401e-01</leafValues></_>
        <_>
          <internalNodes>
            0 -1 21 -76427025 -705203949 -1823745685 1809011277
            -118622324 898337498 -1079297621 1602211819</internalNodes>
          <leafValues>
            -4.3725883960723877e-01 3.1791627407073975e-01</leafValues></_>
        <_>
          <internalNodes>
            0 -1 83 1474033600 1430639435 1104014976 1267717388
            -512767138 1997126355 2059395016 2079326092</internalNodes>
          <leafValues>
            -5.2264249324798584e-01 2.6250457763671875e-01</leafValues></_>
        <_>
          <internalNodes>
            0 -1 30 -5257309 -450401529 -1124663485 2146021360 -22676501
            -1235222561 1150809091 -673187913</internalNodes>
          <leafValues>
            -3.3301791548728943e-01 4.3883842229843140e-01</leafValues></_>
        <_>
          <internalNodes>
            0 -1 40 -735068096 -606452970 -568599992 352124367 -90226664
            -68955958 992954888 -1612778561</internalNodes>
          <leafValues>
            -3.9259910583496094e-01 3.4787562489509583e-01</leafValues></_>
        <_>
          <internalNodes>
            0 -1 190 1408499677 -608699942 2142744147 259391455
            -1483698249 -19203350 -171984303 184023882</internalNodes>
          <leafValues>
            -4.7743609547615051e-01 2.7286788821220398e-01</leafValues></_>
        <_>
          <internalNodes>
            0 -1 141 -1290879064 -1291653080 -845952222 -1222916173
            102675964 562664195 155319268 -1658204255</internalNodes>
          <leafValues>
            -5.1532548666000366e-01 2.7348074316978455e-01</leafValues></_></weakClassifiers></_>
    <!-- stage 5 -->
    <_>
      <maxWeakCount>11</maxWeakCount>
      <stageThreshold>-1.4208899736404419e+00</stageThreshold>
      <weakClassifiers>
        <_>
          <internalNodes>
            0 -1 15 -9175041 -170002177 -173015331 -1215841 -77856785
            -68193077 -269505025 1879045119</internalNodes>
          <leafValues>
            -5.8139532804489136e-01 1.9888663291931152e-01</leafValues></_>
        <_>
          <internalNodes>
            0 -1 57 -269485142 -373096918 -873860896 1740864362
            -1813532677 -21023137 1431531927 -675809289</internalNodes>
          <leafValues>
            -4.6527159214019775e-01 3.1996092200279236e-01</leafValues></_>
        <_>
          <internalNodes>
            0 -1 48 -1085900338 -586370102 2124283386 -1246386
            -1678512658 1179556108 -623904274 2147087210</internalNodes>
          <leafValues>
            -4.5869243144989014e-01 2.8388997912406921e-01</leafValues></_>
        <_>
          <internalNodes>
            0 -1 131 -62951856 -581086081 1313340858 1953234399
            -401701878 -68232260 -354501974 -1434452081</internalNodes>
          <leafValues>
            -4.3222388625144958e-01 2.8859448432922363e-01</leafValues></_>
        <_>
          <internalNodes>
            0 -1 52 -302514177 -33566316 -204908133 -140914485
            1070591739 -15745025 -637796417 1237162751</internalNodes>
          <leafValues>
            -3.2840538024902344e-01 3.5959059000015259e-01</leafValues></_>
        <_>
          <internalNodes>
            0 -1 99 -65274636 1565618273 276983863 -1725091641
            -865631153 -608447523 424395950 787423318</internalNodes>
          <leafValues>
            -5.1900142431259155e-01 2.6408216357231140e-01</leafValues></_>
        <_>
          <internalNodes>
            0 -1 2 -2002745008 -1575376510 -2147237230 2083770704
            -544222685 -385126845 50549515 -220774397</internalNodes>
          <leafValues>
            -5.2852547168731689e-01 2.1428774297237396e-01</leafValues></_>
        <_>
          <internalNodes>
            0 -1 162 -545265129 116049647 210708590 1077407467 -71406046
            -1787333002 -252130054 -999293705</internalNodes>
          <leafValues>
            -3.1097722053527832e-01 3.7170669436454773e-01</leafValues></_>
        <_>
          <internalNodes>
            0 -1 192 -875241601 -548281601 -405377611 196136902
            -1947669638 -847511553 -541131152 200342807</internalNodes>
          <leafValues>
            -5.3021776676177979e-01 2.2613856196403503e-01</leafValues></_>
        <_>
          <internalNodes>
            0 -1 98 -940858456 606917441 -83690536 -1148521601
            -540678731 -1621390751 533646336 -1230048519</internalNodes>
          <leafValues>
            -4.6793484687805176e-01 2.3651477694511414e-01</leafValues></_>
        <_>
          <internalNodes>
            0 -1 10 -285216778 -227358541 -1395080324 2010438992
            -120069633 -18503660 -1398990087 2075655541</internalNodes>
          <leafValues>
            -3.6179101467132568e-01 2.9109182953834534e-01</leafValues></_></weakClassifiers></_>
    <!-- stage 6 -->
    <_>
      <maxWeakCount>12</maxWeakCount>
      <stageThreshold>-1.3258671760559082e+00</stageThreshold>
      <weakClassifiers>
        <_>
          <internalNodes>
            0 -1 1 -102761473 -2622213 -586226987 -175117795 -19931953
            -102900573 -6341665 2147483519</internalNodes>
          <leafValues>
            -6.0085785388946533e-01 9.9705509841442108e-02</leafValues></_>
        <_>
          <internalNodes>
            0 -1 25 -827326749 -295441174 -203563390 -546310718
            -274727961 -19925785 2008938471 -203958345</internalNodes>
          <leafValues>
            -4.3862017989158630e-01 2.7953514456748962e-01</leafValues></_>
        <_>
          <internalNodes>
            0 -1 147 -989678048 2047593185 -536153967 979364799
            -2011121632 -68959570 -1364934991 1027599871</internalNodes>
          <leafValues>
            -5.4623425006866455e-01 2.1587164700031281e-01</leafValues></_>
        <_>
          <internalNodes>
            0 -1 13 -1258604640 -1147423797 551694369 -170446729
            -1608783 -1450923544 -1332022785 1432219614</internalNodes>
          <leafValues>
            -4.5928683876991272e-01 2.4170990288257599e-01</leafValues></_>
        <_>
          <internalNodes>
            0 -1 191 -617545745 -13369362 1536940911 99868155 -961536583
            -1397572673 -2245745 264400571</internalNodes>
          <leafValues>
            -4.4457331299781799e-01 2.7112343907356262e-01</leafValues></_>
        <_>
          <internalNodes>
            0 -1 37 -102799778 -1195515244 43178052 -603269026
            -1073086400 1575575890 1385040490 -236001513</internalNodes>
          <leafValues>
            -4.1125467419624329e-01 2.7592518925666809e-01</leafValues></_>
        <_>
          <internalNodes>
            0 -1 132 -292880768 -1358921048 547656369 -2084181056
            1677514665 -1894780150 162166832 -908079135</internalNodes>
          <leafValues>
            -4.2582458257675171e-01 2.4507157504558563e-01</leafValues></_>
        <_>
          <internalNodes>
            0 -1 173 431007723 -824197633 -547651837 1509059889
            463010746 -1074533202 -70586438 263302043</internalNodes>
          <leafValues>
            -4.7433590888977051e-01 2.1511457860469818e-01</leafValues></_>
        <_>
          <internalNodes>
            0 -1 35 1441743847 -685310507 1570363741 -1045248 1155353807
            -861385509 -644273940 1336298151</internalNodes>
          <leafValues>
            -4.1037479043006897e-01 2.6458358764648438e-01</leafValues></_>
        <_>
          <internalNodes>
            0 -1 90 1733491118 1425484947 -2096491526 -83265654
            -1275085187 1934409921 -553935162 -2020768881</internalNodes>
          <leafValues>
            -3.2530993223190308e-01 3.2269874215126038e-01</leafValues></_>
        <_>
          <internalNodes>
            0 -1 160 -668332962 -690044342 -402065394 -742328710
            1926121802 281976843 -263288662 2082393415</internalNodes>
          <leafValues>
            -4.6887257695198059e-01 2.1346296370029449e-01</leafValues></_>
        <_>
          <internalNodes>
            0 -1 137 -132087616 553660464 1112740418 1352664192
            -1002387192 1146096448 42242307 -2129780374</internalNodes>
          <leafValues>
            -4.2727327346801758e-01 2.3190428316593170e-01</leafValues></_></weakClassifiers></_>
    <!-- stage 7 -->
    <_>
      <maxWeakCount>13</maxWeakCount>
      <stageThreshold>-1.4888938665390015e+00</stageThreshold>
      <weakClassifiers>
        <_>
          <internalNodes>
            0 -1 47 -1 -2097697 1427111935 -572523521 -69861649
            -610018069 -34865681 2147478431</internalNodes>
          <leafValues>
            -5.4434251785278320e-01 1.9716311991214752e-01</leafValues></_>
        <_>
          <internalNodes>
            0 -1 149 -93332965 -9569185 -92107402 -1325446833 -89993716
            2112850527 -423696226 -226496774</internalNodes>
          <leafValues>
            -3.7605828046798706e-01 3.1678086519241333e-01</leafValues></_>
        <_>
          <internalNodes>
            0 -1 7 -1431321072 -1956087328 -909973223 159041248
            1939856299 -359841660 -204546161 -143166091</internalNodes>
          <leafValues>
            -5.3246909379959106e-01 1.9799698889255524e-01</leafValues></_>
        <_>
          <internalNodes>
            0 -1 182 -806223873 -537660449 1536597255 420536135
            -2022070373 1040170685 -6344949 533974923</internalNodes>
          <leafValues>
            -3.7055054306983948e-01 3.0032548308372498e-01</leafValues></_>
        <_>
          <internalNodes>
            0 -1 39 -145817914 -687605372 -13899192 -74517138 -288687921
            1464658502 -623127604 2075065285</internalNodes>
          <leafValues>
            -4.8952755331993103e-01 2.2786329686641693e-01</leafValues></_>
        <_>
          <internalNodes>
            0 -1 23 -136512430 -787167999 1074938284 493687560 276146851
            589013515 -865656437 1239239771</internalNodes>
          <leafValues>
            -5.3250396251678467e-01 1.9003206491470337e-01</leafValues></_>
        <_>
          <internalNodes>
            0 -1 31 -145759958 -821049914 -1078337216 -33608032
            1423538085 -950140963 -162011277 -136845913</internalNodes>
          <leafValues>
            -3.0383500456809998e-01 3.1146323680877686e-01</leafValues></_>
        <_>
          <internalNodes>
            0 -1 193 1139866877 2147483579 -721073 301259775 45154299
            -4327429 -269533409 229752671</internalNodes>
          <leafValues>
            -4.5057049393653870e-01 2.0139770209789276e-01</leafValues></_>
        <_>
          <internalNodes>
            0 -1 42 -20984736 -4949545 1448263706 920189577 1244448832
            1875771437 -1057342948 -538430483</internalNodes>
          <leafValues>
            -4.0678599476814270e-01 2.2909586131572723e-01</leafValues></_>
        <_>
          <internalNodes>
            0 -1 164 -1702174440 62965896 -1065320304 -1457761656
            -326805376 -633110391 -2106828700 -619713015</internalNodes>
          <leafValues>
            -4.4796335697174072e-01 2.1863941848278046e-01</leafValues></_>
        <_>
          <internalNodes>
            0 -1 101 -234889820 -666225189 -1399322265 1964819540
            -1249840208 751140889 -1867275363 1896469407</internalNodes>
          <leafValues>
            -3.6860093474388123e-01 2.7174666523933411e-01</leafValues></_>
        <_>
          <internalNodes>
            0 -1 129 -1020590966 -642048879 1325310994 1395630707
            -547047934 69222928 1212995731 -80798150</internalNodes>
          <leafValues>
            -2.7938663959503174e-01 3.5098463296890259e-01</leafValues></_>
        <_>
          <internalNodes>
            0 -1 45 -1026242332 -1153832753 1292814068 -27099373
            948969215 1050933529 1586010798 2130502223</internalNodes>
          <leafValues>
            -4.3503525853157043e-01 2.4240022897720337e-01</leafValues></_></weakClassifiers></_>
    <!-- stage 8 -->
    <_>
      <maxWeakCount>16</maxWeakCount>
      <stageThreshold>-1.3324991464614868e+00</stageThreshold>
      <weakClassifiers>
        <_>
          <internalNodes>
            0 -1 74 -393217 -35925097 -538715729 -33569889 -549716757
            -75636018 -124911618 2146434991</internalNodes>
          <leafValues>
            -5.8858078718185425e-01 3.7313431967049837e-03</leafValues></_>
        <_>
          <internalNodes>
            0 -1 94 -1073742028 -706907907 835740020 -48246723
            -190385775 -57421159 1951512509 -1392783361</internalNodes>
          <leafValues>
            -3.5835200548171997e-01 3.1568315625190735e-01</leafValues></_>
        <_>
          <internalNodes>
            0 -1 58 -8389221 1873804194 817311616 -68703764 -8388633
            -543302116 1869064178 -2049</internalNodes>
          <leafValues>
            -2.2720864415168762e-01 4.3911415338516235e-01</leafValues></_>
        <_>
          <internalNodes>
            0 -1 185 -1744830509 -604192813 -84296865 201055063
            2079373168 -638362697 804831039 198426495</internalNodes>
          <leafValues>
            -4.2267248034477234e-01 2.1650552749633789e-01</leafValues></_>
        <_>
          <internalNodes>
            0 -1 166 -138944486 -587763893 1081798272 -253631506
            1755794510 -1603437137 -1999058297 -187960453</internalNodes>
          <leafValues>
            -2.5246855616569519e-01 3.9071065187454224e-01</leafValues></_>
        <_>
          <internalNodes>
            0 -1 105 -649057790 2024933448 1109660320 -247848383
            -478953408 1277251603 -2074898204 -1022416161</internalNodes>
          <leafValues>
            -2.9787963628768921e-01 2.8947582840919495e-01</leafValues></_>
        <_>
          <internalNodes>
            0 -1 38 -429929944 2008538493 1510400223 -1673078113
            -938472712 998880138 -128423059 -425787393</internalNodes>
          <leafValues>
            -3.0643260478973389e-01 2.8518235683441162e-01</leafValues></_>
        <_>
          <internalNodes>
            0 -1 3 1953723543 1602206737 -1717902116 1407573961
            -629529669 -1201547070 2091740127 2137253707</internalNodes>
          <leafValues>
            -3.3177146315574646e-01 3.0142271518707275e-01</leafValues></_>
        <_>
          <internalNodes>
            0 -1 159 1715603030 -307897838 -784154361 -1701927145
            1358667850 -70278483 1657701009 -1469059081</internalNodes>
          <leafValues>
            -3.8169708847999573e-01 2.4539253115653992e-01</leafValues></_>
        <_>
          <internalNodes>
            0 -1 112 -39942648 -300109490 -1910906764 -679925452
            -686804130 287071328 -1001427712 -1871773632</internalNodes>
          <leafValues>
            -3.1971287727355957e-01 2.7512091398239136e-01</leafValues></_>
        <_>
          <internalNodes>
            0 -1 20 -307790410 -891101054 1175246708 2138013828
            2141846409 -84492237 1950593857 1609561830</internalNodes>
          <leafValues>
            -4.1018813848495483e-01 2.1113251149654388e-01</leafValues></_>
        <_>
          <internalNodes>
            0 -1 157 -549231094 -221930523 1363937554 -179420886
            -417816753 965905362 -610353259 2139749693</internalNodes>
          <leafValues>
            -3.7948682904243469e-01 2.2222946584224701e-01</leafValues></_>
        <_>
          <internalNodes>
            0 -1 91 2145507018 -1083252630 450444878 -500289257
            -24117509 -505122490 -337647657 -745789363</internalNodes>
          <leafValues>
            -3.2620692253112793e-01 2.8101593255996704e-01</leafValues></_>
        <_>
          <internalNodes>
            0 -1 171 1976081909 1106346143 -68292734 32542665 227970969
            -1078412309 -1492582646 130060267</internalNodes>
          <leafValues>
            -5.4860514402389526e-01 1.7666733264923096e-01</leafValues></_>
        <_>
          <internalNodes>
            0 -1 120 -220417376 -909344589 580790288 -532701084
            -1842223962 -434560768 1463875250 -209022580</internalNodes>
          <leafValues>
            -2.8460818529129028e-01 3.2369500398635864e-01</leafValues></_>
        <_>
          <internalNodes>
            0 -1 136 -1284539653 289143843 -1275219141 -1653870081
            1560016127 -1783104385 -831006741 -1060114457</internalNodes>
          <leafValues>
            -2.1446114778518677e-01 4.6036568284034729e-01</leafValues></_></weakClassifiers></_>
    <!-- stage 9 -->
    <_>
      <maxWeakCount>17</maxWeakCount>
      <stageThreshold>-1.4080969095230103e+00</stageThreshold>
      <weakClassifiers>
        <_>
          <internalNodes>
            0 -1 134 -1669476821 -8702406 -1974988202 473841909
            -23240692 -17250145 -20252020 -26224161</internalNodes>
          <leafValues>
            -6.3318186998367310e-01 -7.8064709901809692e-02</leafValues></_>
        <_>
          <internalNodes>
            0 -1 65 -137764865 -2647102 -716310202 -1082262097 -51140609
            -1511262034 -135599329 2013264895</internalNodes>
          <leafValues>
            -3.7738487124443054e-01 2.3634789884090424e-01</leafValues></_>
        <_>
          <internalNodes>
            0 -1 56 -1438085200 -293053760 -2029457183 -75239596
            -875364944 -68984444 -1148683826 -807403531</internalNodes>
          <leafValues>
            -4.2849510908126831e-01 2.0871226489543915e-01</leafValues></_>
        <_>
          <internalNodes>
            0 -1 84 -251941944 -670641631 419486832 -140550913
            -821052725 1158529035 -338863137 871992751</internalNodes>
          <leafValues>
            -3.4297850728034973e-01 2.6339864730834961e-01</leafValues></_>
        <_>
          <internalNodes>
            0 -1 60 -322517661 -1658913929 -572871171 -541137400
            1123305676 -838022726 -289912610 -805680588</internalNodes>
          <leafValues>
            -2.8967392444610596e-01 3.0354577302932739e-01</leafValues></_>
        <_>
          <internalNodes>
            0 -1 186 266919807 -2229361 -674337841 30596831 251182014
            -1088946689 -68482534 133382139</internalNodes>
          <leafValues>
            -4.6696320176124573e-01 1.7979326844215393e-01</leafValues></_>
        <_>
          <internalNodes>
            0 -1 41 -604582776 2144210190 -393092544 620654746
            -1666463736 2023063592 -37094904 -363432966</internalNodes>
          <leafValues>
            -4.2092955112457275e-01 2.1567739546298981e-01</leafValues></_>
        <_>
          <internalNodes>
            0 -1 124 -1962867584 -2075268566 190584368 -1826324424
            -2098088444 1314836 2126276 -1861279096</internalNodes>
          <leafValues>
            -3.9697623252868652e-01 2.0914869010448456e-01</leafValues></_>
        <_>
          <internalNodes>
            0 -1 113 -408226083 -1760443380 1493188893 1025006377
            -582419747 687882374 -1404179577 1361837927</internalNodes>
          <leafValues>
            -3.0829593539237976e-01 2.8200924396514893e-01</leafValues></_>
        <_>
          <internalNodes>
            0 -1 177 199278545 1607057219 525819294 1164981023 466651162
            -1946358278 -536892898 266457087</internalNodes>
          <leafValues>
            -4.7928825020790100e-01 1.8315021693706512e-01</leafValues></_>
        <_>
          <internalNodes>
            0 -1 170 -533732857 -1288951244 1915442661 -222691350
            -54591782 1327415180 1130336156 -134219115</internalNodes>
          <leafValues>
            -2.1007771790027618e-01 4.4798269867897034e-01</leafValues></_>
        <_>
          <internalNodes>
            0 -1 150 -88418238 364595298 812684336 525287528 -452980224
            -2127926752 1404229035 -769940597</internalNodes>
          <leafValues>
            -2.7826711535453796e-01 3.1689760088920593e-01</leafValues></_>
        <_>
          <internalNodes>
            0 -1 26 -1540472065 399741337 1385423634 561336783
            1141949128 -132537717 -1056769 -151939709</internalNodes>
          <leafValues>
            -2.7036780118942261e-01 3.0115363001823425e-01</leafValues></_>
        <_>
          <internalNodes>
            0 -1 126 667798254 -904142769 949348034 -1382192289
            664516095 -712371480 -1945541560 -62925421</internalNodes>
          <leafValues>
            -2.8212517499923706e-01 2.9888752102851868e-01</leafValues></_>
        <_>
          <internalNodes>
            0 -1 71 -137429907 -459614156 -1793775993 -346299711
            -91021089 -1752343986 -118031572 1901389803</internalNodes>
          <leafValues>
            -4.2887321114540100e-01 2.1851524710655212e-01</leafValues></_>
        <_>
          <internalNodes>
            0 -1 102 -862403456 152698888 1619114568 408180481
            -1851522432 119787052 37880402 -2113715114</internalNodes>
          <leafValues>
            -4.0104955434799194e-01 2.1542258560657501e-01</leafValues></_>
        <_>
          <internalNodes>
            0 -1 32 -539796229 -1414793729 1485132580 2016934874
            -839227704 -1040170042 -582424866 -932000217</internalNodes>
          <leafValues>
            -2.8433001041412354e-01 2.9530119895935059e-01</leafValues></_></weakClassifiers></_>
    <!-- stage 10 -->
    <_>
      <maxWeakCount>16</maxWeakCount>
      <stageThreshold>-1.3884822130203247e+00</stageThreshold>
      <weakClassifiers>
        <_>
          <internalNodes>
            0 -1 11 -607271200 1935147249 -1723852702 -671789047
            -226437413 -207052660 -1818525250 -204617281</internalNodes>
          <leafValues>
            -6.2747991085052490e-01 -7.0191428065299988e-02</leafValues></_>
        <_>
          <internalNodes>
            0 -1 4 -1945920512 -544230000 -251604424 -287055600
            -1026962981 -1164328941 1225190203 -143163609</internalNodes>
          <leafValues>
            -3.9827862381935120e-01 1.8069170415401459e-01</leafValues></_>
        <_>
          <internalNodes>
            0 -1 50 -182718773 -621733223 1098939213 2102245647
            -393527569 -1977020318 1394011701 804257421</internalNodes>
          <leafValues>
            -4.1736376285552979e-01 2.0673881471157074e-01</leafValues></_>
        <_>
          <internalNodes>
            0 -1 115 -70794208 -480196478 -868216574 -1383552294
            -201622813 1943900867 -527959643 -39978085</internalNodes>
          <leafValues>
            -3.3550849556922913e-01 2.5813558697700500e-01</leafValues></_>
        <_>
          <internalNodes>
            0 -1 77 171593216 -83717440 176478704 -1312263552 730040826
            -17055653 -507910212 -572566147</internalNodes>
          <leafValues>
            -4.1626146435737610e-01 2.1148639917373657e-01</leafValues></_>
        <_>
          <internalNodes>
            0 -1 79 1171227084 -585136862 1529977524 -574739456
            1405341017 1492666635 -1701095013 1493846057</internalNodes>
          <leafValues>
            -4.0453308820724487e-01 2.1123914420604706e-01</leafValues></_>
        <_>
          <internalNodes>
            0 -1 67 -57542096 804057084 -10944646 -684097944 -18490375
            -579652696 -558678086 1610349835</internalNodes>
          <leafValues>
            -2.4545501172542572e-01 3.5483735799789429e-01</leafValues></_>
        <_>
          <internalNodes>
            0 -1 172 468759447 -797181081 -1622009524 74833829
            1536596567 -1799636819 -68604902 1274227647</internalNodes>
          <leafValues>
            -4.7374603152275085e-01 1.6511726379394531e-01</leafValues></_>
        <_>
          <internalNodes>
            0 -1 19 -701312770 1157416084 -467746658 250368205 -15318772
            -762361185 104547119 1567737299</internalNodes>
          <leafValues>
            -4.5468455553054810e-01 1.7584757506847382e-01</leafValues></_>
        <_>
          <internalNodes>
            0 -1 169 -1567905630 -2146958674 -758178175 1177918652
            372169968 -1737964092 1029626179 -793785637</internalNodes>
          <leafValues>
            -2.7110403776168823e-01 3.1943660974502563e-01</leafValues></_>
        <_>
          <internalNodes>
            0 -1 108 -1259708912 417304822 1623466508 1422154712
            -800694204 -12412391 -1262425560 1042545598</internalNodes>
          <leafValues>
            -4.8283368349075317e-01 1.7239548265933990e-01</leafValues></_>
        <_>
          <internalNodes>
            0 -1 68 -554763881 -67930749 1959123278 -278275301
            1551993480 1820346860 1387260927 1058403707</internalNodes>
          <leafValues>
            -4.1570019721984863e-01 1.7588789761066437e-01</leafValues></_>
        <_>
          <internalNodes>
            0 -1 154 -47515518 -1744056278 -877695359 -1026928146
            -608198966 111081312 965959060 -2133076085</internalNodes>
          <leafValues>
            -2.8271767497062683e-01 2.8630712628364563e-01</leafValues></_>
        <_>
          <internalNodes>
            0 -1 89 1445951437 1998626789 -1892683777 1325788987
            -543817857 -10879185 515419819 -1151213747</internalNodes>
          <leafValues>
            -2.1462906897068024e-01 3.8625234365463257e-01</leafValues></_>
        <_>
          <internalNodes>
            0 -1 61 -2075472832 2109366869 -1106919024 -1403223460
            -578545592 -930031487 -789264516 1252810196</internalNodes>
          <leafValues>
            -5.7111966609954834e-01 1.3209055364131927e-01</leafValues></_>
        <_>
          <internalNodes>
            0 -1 123 -187408278 -521114968 1120202812 -204939210
            2130544812 1356990444 264828618 -1500539702</internalNodes>
          <leafValues>
            -2.7336806058883667e-01 3.1073382496833801e-01</leafValues></_></weakClassifiers></_>
    <!-- stage 11 -->
    <_>
      <maxWeakCount>18</maxWeakCount>
      <stageThreshold>-1.3655668497085571e+00</stageThreshold>
      <weakClassifiers>
        <_>
          <internalNodes>
            0 -1 49 -10765377 -164354 -1081618849 -44051471 -917930001
            -1615215957 -1473258241 2080358395</internalNodes>
          <leafValues>
            -5.3211462497711182e-01 4.1439477354288101e-03</leafValues></_>
        <_>
          <internalNodes>
            0 -1 27 -1926517070 -479922014 -2129240640 -219816974
            1136565202 899271601 1199530275 -134224969</internalNodes>
          <leafValues>
            -4.2864513397216797e-01 2.1311216056346893e-01</leafValues></_>
        <_>
          <internalNodes>
            0 -1 80 -287375406 -1831729776 -1722786928 399557074
            -643512629 -320874361 -922063904 -621870283</internalNodes>
          <leafValues>
            -2.8680363297462463e-01 2.7817332744598389e-01</leafValues></_>
        <_>
          <internalNodes>
            0 -1 0 2128280979 -140648413 545506937 -270852663 -372723793
            975374763 -1964442627 1872727899</internalNodes>
          <leafValues>
            -3.7747001647949219e-01 2.0030593872070312e-01</leafValues></_>
        <_>
          <internalNodes>
            0 -1 130 -1501532544 -150941904 -1793965677 -1224573390
            931361729 -1624014461 558127577 -1481245711</internalNodes>
          <leafValues>
            -3.7489697337150574e-01 2.4774743616580963e-01</leafValues></_>
        <_>
          <internalNodes>
            0 -1 72 -102841270 -118060954 -361855475 1626971176
            -2023945472 925773353 -1543051283 -212342937</internalNodes>
          <leafValues>
            -2.7971762418746948e-01 2.9183325171470642e-01</leafValues></_>
        <_>
          <internalNodes>
            0 -1 138 -358942592 -488935224 -1056366000 -803733242
            -496718646 302556193 339792266 -783613765</internalNodes>
          <leafValues>
            -3.0917242169380188e-01 2.5806832313537598e-01</leafValues></_>
        <_>
          <internalNodes>
            0 -1 109 1928700326 407234045 1895794347 -1768514174
            -1461804561 306465779 649743150 -1241766106</internalNodes>
          <leafValues>
            -2.9108640551567078e-01 2.7332317829132080e-01</leafValues></_>
        <_>
          <internalNodes>
            0 -1 184 265338827 -671089697 -35741924 483512857 165739435
            -1347904578 -473433344 183909241</internalNodes>
          <leafValues>
            -4.8851445317268372e-01 1.6040863096714020e-01</leafValues></_>
        <_>
          <internalNodes>
            0 -1 6 145001472 189862400 -396996517 611520528 -1809600054
            -620158813 -742139337 1400340343</internalNodes>
          <leafValues>
            -6.0025173425674438e-01 1.3193045556545258e-01</leafValues></_>
        <_>
          <internalNodes>
            0 -1 100 -793189588 413286356 -1285132892 -1314930784
            -285368652 -273369627 1146477996 -1522125730</internalNodes>
          <leafValues>
            -2.4854384362697601e-01 3.0684912204742432e-01</leafValues></_>
        <_>
          <internalNodes>
            0 -1 142 -939367936 -225694336 1241760819 -1618427264
            848857983 818937877 1482292724 2107422973</internalNodes>
          <leafValues>
            -4.0344029664993286e-01 1.8463221192359924e-01</leafValues></_>
        <_>
          <internalNodes>
            0 -1 111 -502755168 1393078981 317298710 1905864415
            915578936 358122105 -1220436734 -214256662</internalNodes>
          <leafValues>
            -2.5246548652648926e-01 2.9850533604621887e-01</leafValues></_>
        <_>
          <internalNodes>
            0 -1 66 -131010640 -349201388 -610897473 -482159490
            -198355250 -14761673 -154273384 2141183963</internalNodes>
          <leafValues>
            -2.4565073847770691e-01 3.2475093007087708e-01</leafValues></_>
        <_>
          <internalNodes>
            0 -1 156 -337687032 1983234287 743164116 1611223693
            -884563377 -1610370018 1242802604 -252974153</internalNodes>
          <leafValues>
            -3.4235614538192749e-01 2.3409722745418549e-01</leafValues></_>
        <_>
          <internalNodes>
            0 -1 175 51572347 1476319199 -1356912677 113279761 114464707
            -289794001 -103040247 265513603</internalNodes>
          <leafValues>
            -5.1250463724136353e-01 1.5956047177314758e-01</leafValues></_>
        <_>
          <internalNodes>
            0 -1 133 -684850496 -898654080 327305835 -712011584
            -17824672 1160140998 254337943 -1228252022</internalNodes>
          <leafValues>
            -3.1201598048210144e-01 2.5532919168472290e-01</leafValues></_>
        <_>
          <internalNodes>
            0 -1 69 -1906104544 -496793344 1162317824 688191664
            1635920854 -507866480 -351354124 -1114905962</internalNodes>
          <leafValues>
            -4.0636324882507324e-01 1.9466717541217804e-01</leafValues></_></weakClassifiers></_>
    <!-- stage 12 -->
    <_>
      <maxWeakCount>18</maxWeakCount>
      <stageThreshold>-1.5336408615112305e+00</stageThreshold>
      <weakClassifiers>
        <_>
          <internalNodes>
            0 -1 70 -336863798 -553209586 -620619738 -135324657
            -892668978 1293590973 -873083953 -134499409</internalNodes>
          <leafValues>
            6.1397886276245117e-01 -7.1240104734897614e-02</leafValues></_>
        <_>
          <internalNodes>
            0 -1 152 -1875508144 2052317256 -1873107241 -141331829
            -1114988824 -341237334 -1609694102 -251724801</internalNodes>
          <leafValues>
            -4.8528671264648438e-01 1.2510317564010620e-01</leafValues></_>
        <_>
          <internalNodes>
            0 -1 181 449902047 -538251777 -929828851 32821026 48525099
            -1344866898 -556007637 150437323</internalNodes>
          <leafValues>
            -4.3188530206680298e-01 1.8361768126487732e-01</leafValues></_>
        <_>
          <internalNodes>
            0 -1 29 2005703000 -985382642 627490984 1406475789
            -938817682 1212187733 135314349 151769902</internalNodes>
          <leafValues>
            -4.5239022374153137e-01 1.6984583437442780e-01</leafValues></_>
        <_>
          <internalNodes>
            0 -1 73 1827387327 414020200 -17654361 -1345455884
            -1068827669 -620606885 -1148257446 1865143940</internalNodes>
          <leafValues>
            -3.8339811563491821e-01 1.8901248276233673e-01</leafValues></_>
        <_>
          <internalNodes>
            0 -1 59 701233354 -383065810 -90527648 -173474936 445556619
            1210495378 376960674 -676862013</internalNodes>
          <leafValues>
            -2.8135514259338379e-01 2.7980542182922363e-01</leafValues></_>
        <_>
          <internalNodes>
            0 -1 140 -717069790 -541021944 84023824 -8613832 -1450128403
            -1786726247 -88167961 798528253</internalNodes>
          <leafValues>
            -3.1612202525138855e-01 2.2330114245414734e-01</leafValues></_>
        <_>
          <internalNodes>
            0 -1 87 -85278558 -108947392 1333559300 1896178512
            -1205477184 1041511424 1440064440 -2108013133</internalNodes>
          <leafValues>
            -2.6831141114234924e-01 2.7870228886604309e-01</leafValues></_>
        <_>
          <internalNodes>
            0 -1 44 -946746358 -489192681 -536242604 1821266831
            1470349312 1489742619 -1979242231 -1647345043</internalNodes>
          <leafValues>
            -4.0771389007568359e-01 1.8097732961177826e-01</leafValues></_>
        <_>
          <internalNodes>
            0 -1 158 -765539111 1427563215 1351062558 -917258090
            -729328356 -669368162 1631635620 2147471569</internalNodes>
          <leafValues>
            -2.7470156550407410e-01 2.8546696901321411e-01</leafValues></_>
        <_>
          <internalNodes>
            0 -1 114 -2056568131 -1321599113 -17514690 -42540430
            -1518995979 1207005182 -1932193333 -115133417</internalNodes>
          <leafValues>
            -2.4321371316909790e-01 3.2071539759635925e-01</leafValues></_>
        <_>
          <internalNodes>
            0 -1 92 -612797953 2076095099 -332136981 1639613662
            -1880693841 -1418533377 -1497043725 -556085763</internalNodes>
          <leafValues>
            -1.9510571658611298e-01 4.1279569268226624e-01</leafValues></_>
        <_>
          <internalNodes>
            0 -1 107 -783226784 -136002408 -1791264528 -785657383
            -1088182184 554708626 -1950633048 -612756534</internalNodes>
          <leafValues>
            -2.1138350665569305e-01 3.3584797382354736e-01</leafValues></_>
        <_>
          <internalNodes>
            0 -1 192 1130405741 -673974529 2138433837 227861198
            1270147631 1056242919 -119734482 198216774</internalNodes>
          <leafValues>
            -5.5799555778503418e-01 1.2907704710960388e-01</leafValues></_>
        <_>
          <internalNodes>
            0 -1 165 1915464262 1352471654 1686091780 310146764
            -1730509050 -735590260 -1198297597 -82058041</internalNodes>
          <leafValues>
            -3.0195322632789612e-01 2.6296561956405640e-01</leafValues></_>
        <_>
          <internalNodes>
            0 -1 125 -374789376 1545947638 1374994306 2136319426
            841798819 153226637 -240544398 -67730285</internalNodes>
          <leafValues>
            -2.2869551181793213e-01 3.1952711939811707e-01</leafValues></_>
        <_>
          <internalNodes>
            0 -1 55 -38573579 -343433615 79843369 1309924163 -784612355
            1608121114 -831637350 1097198569</internalNodes>
          <leafValues>
            -4.4388818740844727e-01 1.5987017750740051e-01</leafValues></_>
        <_>
          <internalNodes>
            0 -1 122 -97201612 -1813221762 -311021944 468632958
            477110936 -168338444 -959519266 -1296613730</internalNodes>
          <leafValues>
            -2.1842981874942780e-01 3.6191204190254211e-01</leafValues></_></weakClassifiers></_>
    <!-- stage 13 -->
    <_>
      <maxWeakCount>18</maxWeakCount>
      <stageThreshold>-1.4067405462265015e+00</stageThreshold>
      <weakClassifiers>
        <_>
          <internalNodes>
            0 -1 70 -9437750 -9522930 -1690166236 -538077177 -1886736178
            1293871289 -880686129 -136333649</internalNodes>
          <leafValues>
            -6.3485854864120483e-01 -1.1760808527469635e-02</leafValues></_>
        <_>
          <internalNodes>
            0 -1 127 -1434009522 -1197363077 -637479924 -690699690
            1247443016 -190262552 1355393738 -101193089</internalNodes>
          <leafValues>
            -3.3779525756835938e-01 1.7966012656688690e-01</leafValues></_>
        <_>
          <internalNodes>
            0 -1 176 265334525 -78546441 -1441195665 160465343
            -1895777601 -269413 -271130853 66068094</internalNodes>
          <leafValues>
            -4.8599120974540710e-01 1.4508390426635742e-01</leafValues></_>
        <_>
          <internalNodes>
            0 -1 168 201327616 1342276363 -1073725167 67322241 8947725
            -2147385344 -1610440506 -1565529483</internalNodes>
          <leafValues>
            -4.8167204856872559e-01 1.8161998689174652e-01</leafValues></_>
        <_>
          <internalNodes>
            0 -1 110 -234882388 -1647734577 -1878761168 1025025312
            -1725714204 80578574 -301872728 832933570</internalNodes>
          <leafValues>
            -3.1661325693130493e-01 2.4114367365837097e-01</leafValues></_>
        <_>
          <internalNodes>
            0 -1 135 -1356283392 -117816808 1351838032 -735370624
            -2105516024 877986509 -2114481969 -1497691361</internalNodes>
          <leafValues>
            -2.6469996571540833e-01 2.7581912279129028e-01</leafValues></_>
        <_>
          <internalNodes>
            0 -1 187 223407055 -140547911 -954090119 265344435 243731807
            2143280894 -288363912 1877737434</internalNodes>
          <leafValues>
            -3.7576839327812195e-01 1.8540333211421967e-01</leafValues></_>
        <_>
          <internalNodes>
            0 -1 121 -750761814 -570408374 -1656748958 -771192190
            -1283244289 1431431367 -493177375 -1191224357</internalNodes>
          <leafValues>
            -3.3389946818351746e-01 2.4287375807762146e-01</leafValues></_>
        <_>
          <internalNodes>
            0 -1 85 -1562621378 136057425 1779660869 399971904 182577413
            -272332009 2099458311 14994900</internalNodes>
          <leafValues>
            -4.3114915490150452e-01 1.7829462885856628e-01</leafValues></_>
        <_>
          <internalNodes>
            0 -1 16 -2030148054 -2136947630 -536598492 1652867536
            -1820295313 -486372848 -787444758 1912862861</internalNodes>
          <leafValues>
            -6.0113841295242310e-01 1.0681860148906708e-01</leafValues></_>
        <_>
          <internalNodes>
            0 -1 34 -671396777 1474604079 -214721050 -1848705797
            1326913484 113842172 -1341985851 -246223541</internalNodes>
          <leafValues>
            -2.5287953019142151e-01 2.9379209876060486e-01</leafValues></_>
        <_>
          <internalNodes>
            0 -1 64 -202356309 1546117141 119652493 -1480642600
            -897144580 -357652253 1327299123 2147277759</internalNodes>
          <leafValues>
            -3.7577870488166809e-01 1.9211210310459137e-01</leafValues></_>
        <_>
          <internalNodes>
            0 -1 116 -701322000 600457447 1509985816 2047101992
            -88061808 810625041 -492200131 -1084615712</internalNodes>
          <leafValues>
            -2.5967335700988770e-01 3.2390621304512024e-01</leafValues></_>
        <_>
          <internalNodes>
            0 -1 128 -802661248 2041223440 -1971189214 1091063884
            -1442209590 310890120 -583462758 -2128858658</internalNodes>
          <leafValues>
            -2.7653399109840393e-01 2.6308131217956543e-01</leafValues></_>
        <_>
          <internalNodes>
            0 -1 144 1227144738 287347110 1073811841 -642510663 47949235
            -358549313 -762651789 1067989756</internalNodes>
          <leafValues>
            -3.8721343874931335e-01 1.9796879589557648e-01</leafValues></_>
        <_>
          <internalNodes>
            0 -1 96 -890645530 -76137428 1635407089 -653705103
            -222196352 -2135454648 826650799 -546421106</internalNodes>
          <leafValues>
            -2.2893629968166351e-01 3.4883117675781250e-01</leafValues></_>
        <_>
          <internalNodes>
            0 -1 180 115396552 -268602625 -476620085 55125 34911734
            -2031601929 -876678966 2159232</internalNodes>
          <leafValues>
            -4.7331467270851135e-01 1.7090183496475220e-01</leafValues></_>
        <_>
          <internalNodes>
            0 -1 106 -960841592 -1438746614 -836757390 -607137650
            -1698785238 241330388 -1433414422 -1011887074</internalNodes>
          <leafValues>
            -2.7522462606430054e-01 2.7552169561386108e-01</leafValues></_></weakClassifiers></_>
    <!-- stage 14 -->
    <_>
      <maxWeakCount>20</maxWeakCount>
      <stageThreshold>-1.5641496181488037e+00</stageThreshold>
      <weakClassifiers>
        <_>
          <internalNodes>
            0 -1 93 -6572097 1997747627 -793797217 -12890101 -640943889
            -15222773 -1165915669 -1082131477</internalNodes>
          <leafValues>
            -4.4747370481491089e-01 2.6887279748916626e-01</leafValues></_>
        <_>
          <internalNodes>
            0 -1 62 -78893594 -24473120 285594848 -153685586 -1282352145
            1415165953 -7677762 -1089545281</internalNodes>
          <leafValues>
            -3.8248649239540100e-01 1.9512212276458740e-01</leafValues></_>
        <_>
          <internalNodes>
            0 -1 54 1719433453 2012860737 -752178198 -270273361
            -218071909 1910755545 -634921921 1307917543</internalNodes>
          <leafValues>
            -4.2403382062911987e-01 1.5552417933940887e-01</leafValues></_>
        <_>
          <internalNodes>
            0 -1 145 346440728 475984700 -226479860 -251477414
            -376511992 -787840824 -325564392 -205625268</internalNodes>
          <leafValues>
            -3.7190786004066467e-01 2.2409965097904205e-01</leafValues></_>
        <_>
          <internalNodes>
            0 -1 8 -1470403598 -79514480 -1874230864 1373314288
            1889454791 965380300 111729339 -155757321</internalNodes>
          <leafValues>
            -3.1442776322364807e-01 2.0855370163917542e-01</leafValues></_>
        <_>
          <internalNodes>
            0 -1 82 -716056854 -1823908864 -1508796792 1972671498
            -519819084 813732008 -258861909 919194255</internalNodes>
          <leafValues>
            -3.7285614013671875e-01 1.9729779660701752e-01</leafValues></_>
        <_>
          <internalNodes>
            0 -1 81 1546385595 -1309836939 1857846459 1533215607
            -1011184374 -612958225 -1011026448 -1972702825</internalNodes>
          <leafValues>
            -2.0079778134822845e-01 3.6348915100097656e-01</leafValues></_>
        <_>
          <internalNodes>
            0 -1 163 1747340380 -36375818 -796856307 -711095964
            -796599288 1355448457 1312861204 2135412121</internalNodes>
          <leafValues>
            -3.7831446528434753e-01 1.9873639941215515e-01</leafValues></_>
        <_>
          <internalNodes>
            0 -1 103 -768751382 2032850956 -1850876814 1943342158
            957253316 -1742859456 -1627655967 -766813953</internalNodes>
          <leafValues>
            -2.5611773133277893e-01 2.8520381450653076e-01</leafValues></_>
        <_>
          <internalNodes>
            0 -1 104 379801908 922931070 -1283810949 -635466228
            -1162610393 -2140456651 -394184688 -1741505260</internalNodes>
          <leafValues>
            -3.3258980512619019e-01 2.1983511745929718e-01</leafValues></_>
        <_>
          <internalNodes>
            0 -1 179 30440861 -707084297 -711518476 232846730 261139465
            -1980645442 -1919182317 148959131</internalNodes>
          <leafValues>
            -4.8756906390190125e-01 1.4926502108573914e-01</leafValues></_>
        <_>
          <internalNodes>
            0 -1 88 1398517412 1091503627 -603614910 923510340
            -2128548510 631054592 -1559732022 632736907</internalNodes>
          <leafValues>
            -4.1774383187294006e-01 1.7141269147396088e-01</leafValues></_>
        <_>
          <internalNodes>
            0 -1 167 -771178448 -1962893312 -532234031 -1719586142
            -844250936 -2146992000 -896574679 -68179424</internalNodes>
          <leafValues>
            -3.3771258592605591e-01 2.1925686299800873e-01</leafValues></_>
        <_>
          <internalNodes>
            0 -1 183 80128495 -1999374641 -951464498 197197304
            1016397327 -1154549345 -51535969 1270071291</internalNodes>
          <leafValues>
            -3.6071702837944031e-01 2.2551006078720093e-01</leafValues></_>
        <_>
          <internalNodes>
            0 -1 119 -768637184 -601873136 775882474 -14795161 860007339
            1159612135 1935324398 -67434838</internalNodes>
          <leafValues>
            -2.2254292666912079e-01 3.6101421713829041e-01</leafValues></_>
        <_>
          <internalNodes>
            0 -1 97 -967270537 -1557940680 -1305563177 1064938545
            -268444442 -863449123 501218884 -1714608146</internalNodes>
          <leafValues>
            -1.9761918485164642e-01 3.7015640735626221e-01</leafValues></_>
        <_>
          <internalNodes>
            0 -1 46 -660996024 1054310782 638698504 -2003507058
            -1329406960 -817491890 -1966989796 2078650569</internalNodes>
          <leafValues>
            -4.6312439441680908e-01 1.5169039368629456e-01</leafValues></_>
        <_>
          <internalNodes>
            0 -1 117 -1241645544 1532884908 16482983 -2146608144
            -1176828431 -1035746875 831483189 -491344394</internalNodes>
          <leafValues>
            -2.9809227585792542e-01 2.5282818078994751e-01</leafValues></_>
        <_>
          <internalNodes>
            0 -1 139 -157037320 -1059485506 -355562372 352953837
            1829361830 -1314949513 -2104520563 -2006978724</internalNodes>
          <leafValues>
            -2.2160808742046356e-01 3.3625227212905884e-01</leafValues></_>
        <_>
          <internalNodes>
            0 -1 76 -413404937 1296781512 1771802975 -273474273
            -323960453 -677853017 1511709694 1341778080</internalNodes>
          <leafValues>
            -3.7686330080032349e-01 2.1736514568328857e-01</leafValues></_></weakClassifiers></_></stages>
  <features>
    <_>
      <rect>
        0 0 1 1</rect></_>
    <_>
      <rect>
        0 0 1 2</rect></_>
    <_>
      <rect>
        0 0 2 32</rect></_>
    <_>
      <rect>
        0 0 4 3</rect></_>
    <_>
      <rect>
        0 0 4 28</rect></_>
    <_>
      <rect>
        0 0 6 18</rect></_>
    <_>
      <rect>
        0 0 6 32</rect></_>
    <_>
      <rect>
        0 0 8 17</rect></_>
    <_>
      <rect>
        0 0 12 17</rect></_>
    <_>
      <rect>
        0 0 14 42</rect></_>
    <_>
      <rect>
        0 0 24 8</rect></_>
    <_>
      <rect>
        0 0 30 3</rect></_>
    <_>
      <rect>
        0 0 30 9</rect></_>
    <_>
      <rect>
        0 0 30 15</rect></_>
    <_>
      <rect>
        0 0 30 42</rect></_>
    <_>
      <rect>
        0 1 2 2</rect></_>
    <_>
      <rect>
        0 1 25 7</rect></_>
    <_>
      <rect>
        0 1 30 34</rect></_>
    <_>
      <rect>
        0 2 7 42</rect></_>
    <_>
      <rect>
        0 2 14 42</rect></_>
    <_>
      <rect>
        0 3 15 9</rect></_>
    <_>
      <rect>
        0 5 1 1</rect></_>
    <_>
      <rect>
        0 5 12 7</rect></_>
    <_>
      <rect>
        0 5 24 41</rect></_>
    <_>
      <rect>
        0 7 30 40</rect></_>
    <_>
      <rect>
        0 12 9 7</rect></_>
    <_>
      <rect>
        0 18 23 17</rect></_>
    <_>
      <rect>
        0 22 5 7</rect></_>
    <_>
      <rect>
        0 26 5 8</rect></_>
    <_>
      <rect>
        0 29 30 33</rect></_>
    <_>
      <rect>
        0 34 3 5</rect></_>
    <_>
      <rect>
        0 35 4 6</rect></_>
    <_>
      <rect>
        0 53 9 16</rect></_>
    <_>
      <rect>
        0 55 4 8</rect></_>
    <_>
      <rect>
        0 56 6 13</rect></_>
    <_>
      <rect>
        0 57 23 23</rect></_>
    <_>
      <rect>
        0 62 9 20</rect></_>
    <_>
      <rect>
        0 71 5 11</rect></_>
    <_>
      <rect>
        0 77 6 17</rect></_>
    <_>
      <rect>
        0 89 30 13</rect></_>
    <_>
      <rect>
        0 96 14 10</rect></_>
    <_>
      <rect>
        0 99 15 9</rect></_>
    <_>
      <rect>
        0 101 13 9</rect></_>
    <_>
      <rect>
        0 101 28 9</rect></_>
    <_>
      <rect>
        0 104 14 6</rect></_>
    <_>
      <rect>
        0 106 4 7</rect></_>
    <_>
      <rect>
        0 106 11 7</rect></_>
    <_>
      <rect>
        0 116 2 4</rect></_>
    <_>
      <rect>
        0 116 29 4</rect></_>
    <_>
      <rect>
        0 118 3 3</rect></_>
    <_>
      <rect>
        0 119 1 1</rect></_>
    <_>
      <rect>
        0 122 2 2</rect></_>
    <_>
      <rect>
        0 123 1 1</rect></_>
    <_>
      <rect>
        1 0 8 14</rect></_>
    <_>
      <rect>
        1 1 1 1</rect></_>
    <_>
      <rect>
        1 4 1 1</rect></_>
    <_>
      <rect>
        1 5 5 11</rect></_>
    <_>
      <rect>
        1 19 6 6</rect></_>
    <_>
      <rect>
        1 28 3 4</rect></_>
    <_>
      <rect>
        1 35 2 4</rect></_>
    <_>
      <rect>
        1 89 22 13</rect></_>
    <_>
      <rect>
        1 97 7 10</rect></_>
    <_>
      <rect>
        1 119 27 3</rect></_>
    <_>
      <rect>
        1 122 1 1</rect></_>
    <_>
      <rect>
        1 124 1 1</rect></_>
    <_>
      <rect>
        1 125 1 1</rect></_>
    <_>
      <rect>
        2 0 3 8</rect></_>
    <_>
      <rect>
        2 0 3 11</rect></_>
    <_>
      <rect>
        2 4 1 1</rect></_>
    <_>
      <rect>
        2 7 8 5</rect></_>
    <_>
      <rect>
        2 109 29 6</rect></_>
    <_>
      <rect>
        2 124 1 1</rect></_>
    <_>
      <rect>
        3 87 3 4</rect></_>
    <_>
      <rect>
        3 123 1 1</rect></_>
    <_>
      <rect>
        4 125 1 1</rect></_>
    <_>
      <rect>
        5 0 28 4</rect></_>
    <_>
      <rect>
        5 125 1 1</rect></_>
    <_>
      <rect>
        7 0 9 13</rect></_>
    <_>
      <rect>
        7 0 13 12</rect></_>
    <_>
      <rect>
        7 64 22 20</rect></_>
    <_>
      <rect>
        9 0 16 8</rect></_>
    <_>
      <rect>
        9 0 16 34</rect></_>
    <_>
      <rect>
        10 0 24 4</rect></_>
    <_>
      <rect>
        10 83 26 15</rect></_>
    <_>
      <rect>
        10 107 24 6</rect></_>
    <_>
      <rect>
        11 23 15 11</rect></_>
    <_>
      <rect>
        12 20 26 36</rect></_>
    <_>
      <rect>
        15 38 1 1</rect></_>
    <_>
      <rect>
        18 45 23 17</rect></_>
    <_>
      <rect>
        18 73 23 18</rect></_>
    <_>
      <rect>
        20 23 15 23</rect></_>
    <_>
      <rect>
        20 35 18 19</rect></_>
    <_>
      <rect>
        20 41 11 14</rect></_>
    <_>
      <rect>
        20 74 23 18</rect></_>
    <_>
      <rect>
        21 0 23 8</rect></_>
    <_>
      <rect>
        21 85 16 14</rect></_>
    <_>
      <rect>
        22 94 1 1</rect></_>
    <_>
      <rect>
        23 79 8 9</rect></_>
    <_>
      <rect>
        24 88 22 13</rect></_>
    <_>
      <rect>
        25 0 20 41</rect></_>
    <_>
      <rect>
        27 0 7 4</rect></_>
    <_>
      <rect>
        27 0 14 4</rect></_>
    <_>
      <rect>
        27 70 1 1</rect></_>
    <_>
      <rect>
        28 78 1 1</rect></_>
    <_>
      <rect>
        30 52 14 13</rect></_>
    <_>
      <rect>
        31 55 1 1</rect></_>
    <_>
      <rect>
        31 76 1 1</rect></_>
    <_>
      <rect>
        31 81 1 1</rect></_>
    <_>
      <rect>
        33 1 19 9</rect></_>
    <_>
      <rect>
        33 27 8 7</rect></_>
    <_>
      <rect>
        34 0 7 4</rect></_>
    <_>
      <rect>
        39 97 1 1</rect></_>
    <_>
      <rect>
        41 79 1 2</rect></_>
    <_>
      <rect>
        42 23 16 35</rect></_>
    <_>
      <rect>
        42 34 10 25</rect></_>
    <_>
      <rect>
        42 113 16 5</rect></_>
    <_>
      <rect>
        43 0 1 1</rect></_>
    <_>
      <rect>
        43 36 8 13</rect></_>
    <_>
      <rect>
        44 0 15 9</rect></_>
    <_>
      <rect>
        44 110 1 1</rect></_>
    <_>
      <rect>
        45 95 1 1</rect></_>
    <_>
      <rect>
        45 118 15 3</rect></_>
    <_>
      <rect>
        46 0 5 4</rect></_>
    <_>
      <rect>
        46 98 1 1</rect></_>
    <_>
      <rect>
        47 78 1 1</rect></_>
    <_>
      <rect>
        48 103 1 1</rect></_>
    <_>
      <rect>
        49 58 11 17</rect></_>
    <_>
      <rect>
        50 0 11 6</rect></_>
    <_>
      <rect>
        52 30 1 1</rect></_>
    <_>
      <rect>
        54 31 1 1</rect></_>
    <_>
      <rect>
        56 73 10 18</rect></_>
    <_>
      <rect>
        57 5 11 10</rect></_>
    <_>
      <rect>
        57 86 11 13</rect></_>
    <_>
      <rect>
        59 79 1 1</rect></_>
    <_>
      <rect>
        60 5 10 8</rect></_>
    <_>
      <rect>
        60 40 1 1</rect></_>
    <_>
      <rect>
        61 55 9 15</rect></_>
    <_>
      <rect>
        62 35 1 1</rect></_>
    <_>
      <rect>
        62 39 1 1</rect></_>
    <_>
      <rect>
        63 21 2 2</rect></_>
    <_>
      <rect>
        63 104 9 8</rect></_>
    <_>
      <rect>
        65 44 8 28</rect></_>
    <_>
      <rect>
        65 95 8 11</rect></_>
    <_>
      <rect>
        66 17 8 8</rect></_>
    <_>
      <rect>
        66 116 7 4</rect></_>
    <_>
      <rect>
        69 0 6 9</rect></_>
    <_>
      <rect>
        69 0 7 21</rect></_>
    <_>
      <rect>
        69 0 7 42</rect></_>
    <_>
      <rect>
        69 4 7 16</rect></_>
    <_>
      <rect>
        69 12 7 8</rect></_>
    <_>
      <rect>
        70 47 1 1</rect></_>
    <_>
      <rect>
        71 76 6 15</rect></_>
    <_>
      <rect>
        72 0 5 17</rect></_>
    <_>
      <rect>
        72 1 6 17</rect></_>
    <_>
      <rect>
        72 71 6 8</rect></_>
    <_>
      <rect>
        75 2 5 42</rect></_>
    <_>
      <rect>
        75 29 5 7</rect></_>
    <_>
      <rect>
        75 110 5 6</rect></_>
    <_>
      <rect>
        77 0 4 8</rect></_>
    <_>
      <rect>
        78 1 4 29</rect></_>
    <_>
      <rect>
        78 7 4 11</rect></_>
    <_>
      <rect>
        78 27 4 6</rect></_>
    <_>
      <rect>
        78 40 4 10</rect></_>
    <_>
      <rect>
        81 0 3 8</rect></_>
    <_>
      <rect>
        81 44 3 28</rect></_>
    <_>
      <rect>
        84 33 2 3</rect></_>
    <_>
      <rect>
        84 37 2 3</rect></_>
    <_>
      <rect>
        84 65 2 21</rect></_>
    <_>
      <rect>
        86 0 1 32</rect></_>
    <_>
      <rect>
        86 57 1 4</rect></_>
    <_>
      <rect>
        86 61 1 19</rect></_>
    <_>
      <rect>
        87 0 1 1</rect></_>
    <_>
      <rect>
        87 0 1 2</rect></_>
    <_>
      <rect>
        87 1 1 1</rect></_>
    <_>
      <rect>
        87 1 1 2</rect></_>
    <_>
      <rect>
        87 2 1 1</rect></_>
    <_>
      <rect>
        87 3 1 1</rect></_>
    <_>
      <rect>
        87 8 1 1</rect></_>
    <_>
      <rect>
        87 10 1 1</rect></_>
    <_>
      <rect>
        87 12 1 1</rect></_>
    <_>
      <rect>
        87 22 1 1</rect></_>
    <_>
      <rect>
        87 106 1 1</rect></_>
    <_>
      <rect>
        87 112 1 1</rect></_>
    <_>
      <rect>
        87 112 1 2</rect></_>
    <_>
      <rect>
        87 115 1 1</rect></_>
    <_>
      <rect>
        87 119 1 1</rect></_>
    <_>
      <rect>
        87 120 1 1</rect></_>
    <_>
      <rect>
        87 120 1 2</rect></_>
    <_>
      <rect>
        87 121 1 1</rect></_>
    <_>
      <rect>
        87 121 1 2</rect></_>
    <_>
      <rect>
        87 122 1 1</rect></_>
    <_>
      <rect>
        87 123 1 1</rect></_>
    <_>
      <rect>
        87 124 1 1</rect></_>
    <_>
      <rect>
        87 125 1 1</rect></_></features></cascade>
</opencv_storage>
