<?xml version="1.0"?>
<opencv_storage>
<stage3>
  <maxWeakCount>10</maxWeakCount>
  <stageThreshold>-1.5669338703155518e+00</stageThreshold>
  <weakClassifiers>
    <_>
      <internalNodes>
        0 -1 6697 -812912661 -271670334 -440140816 -35914812 -444858373
        -337655401 -33564681 -4205577</internalNodes>
      <leafValues>
        -5.3180831670761108e-01 2.8578004240989685e-01</leafValues></_>
    <_>
      <internalNodes>
        0 -1 3616508 -808255525 -264197 -170690741 223412223 197328831
        -524817 -1310917 267647987</internalNodes>
      <leafValues>
        -4.7518107295036316e-01 3.1859636306762695e-01</leafValues></_>
    <_>
      <internalNodes>
        0 -1 2682506 1018833920 2147150045 -191300584 -54600983
        1827041280 -13899617 751206030 -1602554113</internalNodes>
      <leafValues>
        -6.4279401302337646e-01 2.4397149682044983e-01</leafValues></_>
    <_>
      <internalNodes>
        0 -1 926099 889696492 864924665 291088396 834116155 -1173583890
        587639147 -1471174266 857715855</internalNodes>
      <leafValues>
        -6.2343305349349976e-01 2.5955408811569214e-01</leafValues></_>
    <_>
      <internalNodes>
        0 -1 3613849 -957286657 -1275475977 -665104443 231856981
        301329019 -145237033 -100928177 1207295967</internalNodes>
      <leafValues>
        -4.3994808197021484e-01 3.2169348001480103e-01</leafValues></_>
    <_>
      <internalNodes>
        0 -1 55069 -14691793 1484440454 303752704 -902151630 1731876386
        1651384595 -14484922 -473704665</internalNodes>
      <leafValues>
        -3.9100563526153564e-01 3.7136620283126831e-01</leafValues></_>
    <_>
      <internalNodes>
        0 -1 1553684 1933386479 1600452575 1440690830 -1612907784
        1202622617 1930176926 1661775766 -9913912</internalNodes>
      <leafValues>
        -3.9102047681808472e-01 3.0988332629203796e-01</leafValues></_>
    <_>
      <internalNodes>
        0 -1 159686 -380109849 -4393505 2143125001 1741092093
        -1261764609 -100849171 -153171201 1777719279</internalNodes>
      <leafValues>
        -3.1870624423027039e-01 3.8334307074546814e-01</leafValues></_>
    <_>
      <internalNodes>
        0 -1 3561125 -830499838 -548753105 -896037366 12838663
        1801064450 143499289 -1568497074 -150995749</internalNodes>
      <leafValues>
        -3.9560940861701965e-01 3.2942935824394226e-01</leafValues></_>
    <_>
      <internalNodes>
        0 -1 545024 -1974850528 -1574555118 -1895119404 402100624
        -70395406 -1080389141 -1348813316 -582134411</internalNodes>
      <leafValues>
        -5.5045163631439209e-01 2.0038785040378571e-01</leafValues></_></weakClassifiers></stage3>
</opencv_storage>
