<?xml version="1.0"?>
<opencv_storage>
<stage5>
  <maxWeakCount>11</maxWeakCount>
  <stageThreshold>-1.4208899736404419e+00</stageThreshold>
  <weakClassifiers>
    <_>
      <internalNodes>
        0 -1 1303 -9175041 -170002177 -173015331 -1215841 -77856785
        -68193077 -269505025 1879045119</internalNodes>
      <leafValues>
        -5.8139532804489136e-01 1.9888663291931152e-01</leafValues></_>
    <_>
      <internalNodes>
        0 -1 103118 -269485142 -373096918 -873860896 1740864362
        -1813532677 -21023137 1431531927 -675809289</internalNodes>
      <leafValues>
        -4.6527159214019775e-01 3.1996092200279236e-01</leafValues></_>
    <_>
      <internalNodes>
        0 -1 80725 -1085900338 -586370102 2124283386 -1246386
        -1678512658 1179556108 -623904274 2147087210</internalNodes>
      <leafValues>
        -4.5869243144989014e-01 2.8388997912406921e-01</leafValues></_>
    <_>
      <internalNodes>
        0 -1 3142438 -62951856 -581086081 1313340858 1953234399
        -401701878 -68232260 -354501974 -1434452081</internalNodes>
      <leafValues>
        -4.3222388625144958e-01 2.8859448432922363e-01</leafValues></_>
    <_>
      <internalNodes>
        0 -1 81180 -302514177 -33566316 -204908133 -140914485 1070591739
        -15745025 -637796417 1237162751</internalNodes>
      <leafValues>
        -3.2840538024902344e-01 3.5959059000015259e-01</leafValues></_>
    <_>
      <internalNodes>
        0 -1 1740016 -65274636 1565618273 276983863 -1725091641
        -865631153 -608447523 424395950 787423318</internalNodes>
      <leafValues>
        -5.1900142431259155e-01 2.6408216357231140e-01</leafValues></_>
    <_>
      <internalNodes>
        0 -1 73 -2002745008 -1575376510 -2147237230 2083770704
        -544222685 -385126845 50549515 -220774397</internalNodes>
      <leafValues>
        -5.2852547168731689e-01 2.1428774297237396e-01</leafValues></_>
    <_>
      <internalNodes>
        0 -1 3562745 -545265129 116049647 210708590 1077407467 -71406046
        -1787333002 -252130054 -999293705</internalNodes>
      <leafValues>
        -3.1097722053527832e-01 3.7170669436454773e-01</leafValues></_>
    <_>
      <internalNodes>
        0 -1 3616513 -875241601 -548281601 -405377611 196136902
        -1947669638 -847511553 -541131152 200342807</internalNodes>
      <leafValues>
        -5.3021776676177979e-01 2.2613856196403503e-01</leafValues></_>
    <_>
      <internalNodes>
        0 -1 1733743 -940858456 606917441 -83690536 -1148521601
        -540678731 -1621390751 533646336 -1230048519</internalNodes>
      <leafValues>
        -4.6793484687805176e-01 2.3651477694511414e-01</leafValues></_>
    <_>
      <internalNodes>
        0 -1 973 -285216778 -227358541 -1395080324 2010438992 -120069633
        -18503660 -1398990087 2075655541</internalNodes>
      <leafValues>
        -3.6179101467132568e-01 2.9109182953834534e-01</leafValues></_></weakClassifiers></stage5>
</opencv_storage>
