<?xml version="1.0"?>
<opencv_storage>
<stage7>
  <maxWeakCount>13</maxWeakCount>
  <stageThreshold>-1.4888938665390015e+00</stageThreshold>
  <weakClassifiers>
    <_>
      <internalNodes>
        0 -1 80617 -1 -2097697 1427111935 -572523521 -69861649
        -610018069 -34865681 2147478431</internalNodes>
      <leafValues>
        -5.4434251785278320e-01 1.9716311991214752e-01</leafValues></_>
    <_>
      <internalNodes>
        0 -1 3430522 -93332965 -9569185 -92107402 -1325446833 -89993716
        2112850527 -423696226 -226496774</internalNodes>
      <leafValues>
        -3.7605828046798706e-01 3.1678086519241333e-01</leafValues></_>
    <_>
      <internalNodes>
        0 -1 310 -1431321072 -1956087328 -909973223 159041248 1939856299
        -359841660 -204546161 -143166091</internalNodes>
      <leafValues>
        -5.3246909379959106e-01 1.9799698889255524e-01</leafValues></_>
    <_>
      <internalNodes>
        0 -1 3616475 -806223873 -537660449 1536597255 420536135
        -2022070373 1040170685 -6344949 533974923</internalNodes>
      <leafValues>
        -3.7055054306983948e-01 3.0032548308372498e-01</leafValues></_>
    <_>
      <internalNodes>
        0 -1 74249 -145817914 -687605372 -13899192 -74517138 -288687921
        1464658502 -623127604 2075065285</internalNodes>
      <leafValues>
        -4.8952755331993103e-01 2.2786329686641693e-01</leafValues></_>
    <_>
      <internalNodes>
        0 -1 7223 -136512430 -787167999 1074938284 493687560 276146851
        589013515 -865656437 1239239771</internalNodes>
      <leafValues>
        -5.3250396251678467e-01 1.9003206491470337e-01</leafValues></_>
    <_>
      <internalNodes>
        0 -1 38588 -145759958 -821049914 -1078337216 -33608032
        1423538085 -950140963 -162011277 -136845913</internalNodes>
      <leafValues>
        -3.0383500456809998e-01 3.1146323680877686e-01</leafValues></_>
    <_>
      <internalNodes>
        0 -1 3616514 1139866877 2147483579 -721073 301259775 45154299
        -4327429 -269533409 229752671</internalNodes>
      <leafValues>
        -4.5057049393653870e-01 2.0139770209789276e-01</leafValues></_>
    <_>
      <internalNodes>
        0 -1 77876 -20984736 -4949545 1448263706 920189577 1244448832
        1875771437 -1057342948 -538430483</internalNodes>
      <leafValues>
        -4.0678599476814270e-01 2.2909586131572723e-01</leafValues></_>
    <_>
      <internalNodes>
        0 -1 3588731 -1702174440 62965896 -1065320304 -1457761656
        -326805376 -633110391 -2106828700 -619713015</internalNodes>
      <leafValues>
        -4.4796335697174072e-01 2.1863941848278046e-01</leafValues></_>
    <_>
      <internalNodes>
        0 -1 1853505 -234889820 -666225189 -1399322265 1964819540
        -1249840208 751140889 -1867275363 1896469407</internalNodes>
      <leafValues>
        -3.6860093474388123e-01 2.7174666523933411e-01</leafValues></_>
    <_>
      <internalNodes>
        0 -1 3061509 -1020590966 -642048879 1325310994 1395630707
        -547047934 69222928 1212995731 -80798150</internalNodes>
      <leafValues>
        -2.7938663959503174e-01 3.5098463296890259e-01</leafValues></_>
    <_>
      <internalNodes>
        0 -1 78987 -1026242332 -1153832753 1292814068 -27099373
        948969215 1050933529 1586010798 2130502223</internalNodes>
      <leafValues>
        -4.3503525853157043e-01 2.4240022897720337e-01</leafValues></_></weakClassifiers></stage7>
</opencv_storage>
