<?xml version="1.0"?>
<opencv_storage>
<stage14>
  <maxWeakCount>20</maxWeakCount>
  <stageThreshold>-1.5641496181488037e+00</stageThreshold>
  <weakClassifiers>
    <_>
      <internalNodes>
        0 -1 1487519 -6572097 1997747627 -793797217 -12890101 -640943889
        -15222773 -1165915669 -1082131477</internalNodes>
      <leafValues>
        -4.4747370481491089e-01 2.6887279748916626e-01</leafValues></_>
    <_>
      <internalNodes>
        0 -1 159563 -78893594 -24473120 285594848 -153685586 -1282352145
        1415165953 -7677762 -1089545281</internalNodes>
      <leafValues>
        -3.8248649239540100e-01 1.9512212276458740e-01</leafValues></_>
    <_>
      <internalNodes>
        0 -1 82488 1719433453 2012860737 -752178198 -270273361
        -218071909 1910755545 -634921921 1307917543</internalNodes>
      <leafValues>
        -4.2403382062911987e-01 1.5552417933940887e-01</leafValues></_>
    <_>
      <internalNodes>
        0 -1 3427103 346440728 475984700 -226479860 -251477414
        -376511992 -787840824 -325564392 -205625268</internalNodes>
      <leafValues>
        -3.7190786004066467e-01 2.2409965097904205e-01</leafValues></_>
    <_>
      <internalNodes>
        0 -1 478 -1470403598 -79514480 -1874230864 1373314288 1889454791
        965380300 111729339 -155757321</internalNodes>
      <leafValues>
        -3.1442776322364807e-01 2.0855370163917542e-01</leafValues></_>
    <_>
      <internalNodes>
        0 -1 764907 -716056854 -1823908864 -1508796792 1972671498
        -519819084 813732008 -258861909 919194255</internalNodes>
      <leafValues>
        -3.7285614013671875e-01 1.9729779660701752e-01</leafValues></_>
    <_>
      <internalNodes>
        0 -1 691458 1546385595 -1309836939 1857846459 1533215607
        -1011184374 -612958225 -1011026448 -1972702825</internalNodes>
      <leafValues>
        -2.0079778134822845e-01 3.6348915100097656e-01</leafValues></_>
    <_>
      <internalNodes>
        0 -1 3584098 1747340380 -36375818 -796856307 -711095964
        -796599288 1355448457 1312861204 2135412121</internalNodes>
      <leafValues>
        -3.7831446528434753e-01 1.9873639941215515e-01</leafValues></_>
    <_>
      <internalNodes>
        0 -1 1955865 -768751382 2032850956 -1850876814 1943342158
        957253316 -1742859456 -1627655967 -766813953</internalNodes>
      <leafValues>
        -2.5611773133277893e-01 2.8520381450653076e-01</leafValues></_>
    <_>
      <internalNodes>
        0 -1 2053722 379801908 922931070 -1283810949 -635466228
        -1162610393 -2140456651 -394184688 -1741505260</internalNodes>
      <leafValues>
        -3.3258980512619019e-01 2.1983511745929718e-01</leafValues></_>
    <_>
      <internalNodes>
        0 -1 3614292 30440861 -707084297 -711518476 232846730 261139465
        -1980645442 -1919182317 148959131</internalNodes>
      <leafValues>
        -4.8756906390190125e-01 1.4926502108573914e-01</leafValues></_>
    <_>
      <internalNodes>
        0 -1 1346857 1398517412 1091503627 -603614910 923510340
        -2128548510 631054592 -1559732022 632736907</internalNodes>
      <leafValues>
        -4.1774383187294006e-01 1.7141269147396088e-01</leafValues></_>
    <_>
      <internalNodes>
        0 -1 3607127 -771178448 -1962893312 -532234031 -1719586142
        -844250936 -2146992000 -896574679 -68179424</internalNodes>
      <leafValues>
        -3.3771258592605591e-01 2.1925686299800873e-01</leafValues></_>
    <_>
      <internalNodes>
        0 -1 3616476 80128495 -1999374641 -951464498 197197304
        1016397327 -1154549345 -51535969 1270071291</internalNodes>
      <leafValues>
        -3.6071702837944031e-01 2.2551006078720093e-01</leafValues></_>
    <_>
      <internalNodes>
        0 -1 2721780 -768637184 -601873136 775882474 -14795161 860007339
        1159612135 1935324398 -67434838</internalNodes>
      <leafValues>
        -2.2254292666912079e-01 3.6101421713829041e-01</leafValues></_>
    <_>
      <internalNodes>
        0 -1 1671076 -967270537 -1557940680 -1305563177 1064938545
        -268444442 -863449123 501218884 -1714608146</internalNodes>
      <leafValues>
        -1.9761918485164642e-01 3.7015640735626221e-01</leafValues></_>
    <_>
      <internalNodes>
        0 -1 79036 -660996024 1054310782 638698504 -2003507058
        -1329406960 -817491890 -1966989796 2078650569</internalNodes>
      <leafValues>
        -4.6312439441680908e-01 1.5169039368629456e-01</leafValues></_>
    <_>
      <internalNodes>
        0 -1 2661207 -1241645544 1532884908 16482983 -2146608144
        -1176828431 -1035746875 831483189 -491344394</internalNodes>
      <leafValues>
        -2.9809227585792542e-01 2.5282818078994751e-01</leafValues></_>
    <_>
      <internalNodes>
        0 -1 3306969 -157037320 -1059485506 -355562372 352953837
        1829361830 -1314949513 -2104520563 -2006978724</internalNodes>
      <leafValues>
        -2.2160808742046356e-01 3.3625227212905884e-01</leafValues></_>
    <_>
      <internalNodes>
        0 -1 468629 -413404937 1296781512 1771802975 -273474273
        -323960453 -677853017 1511709694 1341778080</internalNodes>
      <leafValues>
        -3.7686330080032349e-01 2.1736514568328857e-01</leafValues></_></weakClassifiers></stage14>
</opencv_storage>
