<?xml version="1.0"?>
<opencv_storage>
<stage4>
  <maxWeakCount>10</maxWeakCount>
  <stageThreshold>-1.7335377931594849e+00</stageThreshold>
  <weakClassifiers>
    <_>
      <internalNodes>
        0 -1 81123 -136314913 -134153 -1837057 -3333 -4718593 -589439029
        -134217729 2145385471</internalNodes>
      <leafValues>
        -5.8354979753494263e-01 3.2054635882377625e-01</leafValues></_>
    <_>
      <internalNodes>
        0 -1 393942 -168036694 -208449033 -1802401304 -207749671
        -259460164 -190717269 -785818883 1975386047</internalNodes>
      <leafValues>
        -5.4924690723419189e-01 3.0849689245223999e-01</leafValues></_>
    <_>
      <internalNodes>
        0 -1 2813 -823731068 -931865311 -725400408 1549297728 -570736481
        -15939441 -606125089 1597464439</internalNodes>
      <leafValues>
        -5.9341806173324585e-01 2.6302301883697510e-01</leafValues></_>
    <_>
      <internalNodes>
        0 -1 3478834 1480213504 -14780180 -803268138 1582070862
        -208782312 -611657086 -1945567424 -893716577</internalNodes>
      <leafValues>
        -6.1474728584289551e-01 2.3925973474979401e-01</leafValues></_>
    <_>
      <internalNodes>
        0 -1 6240 -76427025 -705203949 -1823745685 1809011277 -118622324
        898337498 -1079297621 1602211819</internalNodes>
      <leafValues>
        -4.3725883960723877e-01 3.1791627407073975e-01</leafValues></_>
    <_>
      <internalNodes>
        0 -1 826181 1474033600 1430639435 1104014976 1267717388
        -512767138 1997126355 2059395016 2079326092</internalNodes>
      <leafValues>
        -5.2264249324798584e-01 2.6250457763671875e-01</leafValues></_>
    <_>
      <internalNodes>
        0 -1 37626 -5257309 -450401529 -1124663485 2146021360 -22676501
        -1235222561 1150809091 -673187913</internalNodes>
      <leafValues>
        -3.3301791548728943e-01 4.3883842229843140e-01</leafValues></_>
    <_>
      <internalNodes>
        0 -1 76459 -735068096 -606452970 -568599992 352124367 -90226664
        -68955958 992954888 -1612778561</internalNodes>
      <leafValues>
        -3.9259910583496094e-01 3.4787562489509583e-01</leafValues></_>
    <_>
      <internalNodes>
        0 -1 3616510 1408499677 -608699942 2142744147 259391455
        -1483698249 -19203350 -171984303 184023882</internalNodes>
      <leafValues>
        -4.7743609547615051e-01 2.7286788821220398e-01</leafValues></_>
    <_>
      <internalNodes>
        0 -1 3358214 -1290879064 -1291653080 -845952222 -1222916173
        102675964 562664195 155319268 -1658204255</internalNodes>
      <leafValues>
        -5.1532548666000366e-01 2.7348074316978455e-01</leafValues></_></weakClassifiers></stage4>
</opencv_storage>
