<?xml version="1.0"?>
<opencv_storage>
<stage1>
  <maxWeakCount>7</maxWeakCount>
  <stageThreshold>-1.2098675966262817e+00</stageThreshold>
  <weakClassifiers>
    <_>
      <internalNodes>
        0 -1 9869 -137625650 -212639453 323744174 -251138257 -766531073
        325006251 1155125195 1465883311</internalNodes>
      <leafValues>
        -6.9039869308471680e-01 2.6776158809661865e-01</leafValues></_>
    <_>
      <internalNodes>
        0 -1 227 713206688 -1885148288 -794307628 -202389760 -606112769
        -1153187597 -593497477 -69212203</internalNodes>
      <leafValues>
        -6.7114043235778809e-01 3.0477219820022583e-01</leafValues></_>
    <_>
      <internalNodes>
        0 -1 3522329 -46997248 -1593577139 -1589460794 690676171
        -2137997280 -1039548407 -1467289087 -1490290689</internalNodes>
      <leafValues>
        -5.0339454412460327e-01 3.6862725019454956e-01</leafValues></_>
    <_>
      <internalNodes>
        0 -1 3613806 1070645231 -43033 1984942019 164666813 1306582671
        -1847001378 -6300147 267647407</internalNodes>
      <leafValues>
        -5.3666716814041138e-01 3.5385552048683167e-01</leafValues></_>
    <_>
      <internalNodes>
        0 -1 3372945 -564278194 -671109025 -2077848990 1356715391
        -629477376 -1308589933 -889200514 -789317905</internalNodes>
      <leafValues>
        -4.5275869965553284e-01 3.8935306668281555e-01</leafValues></_>
    <_>
      <internalNodes>
        0 -1 78011 -11862066 -546581842 1870249358 -32717362 1159434716
        21604953 -873477188 -539194412</internalNodes>
      <leafValues>
        -4.9909380078315735e-01 3.6912557482719421e-01</leafValues></_>
    <_>
      <internalNodes>
        0 -1 3616513 -269090881 -2305569 -275306719 529595703
        -1897612293 -135398977 -67113010 267567039</internalNodes>
      <leafValues>
        -4.4046744704246521e-01 3.8484367728233337e-01</leafValues></_></weakClassifiers></stage1>
</opencv_storage>
