<?xml version="1.0"?>
<opencv_storage>
<stage10>
  <maxWeakCount>16</maxWeakCount>
  <stageThreshold>-1.3884822130203247e+00</stageThreshold>
  <weakClassifiers>
    <_>
      <internalNodes>
        0 -1 1220 -607271200 1935147249 -1723852702 -671789047
        -226437413 -207052660 -1818525250 -204617281</internalNodes>
      <leafValues>
        -6.2747991085052490e-01 -7.0191428065299988e-02</leafValues></_>
    <_>
      <internalNodes>
        0 -1 153 -1945920512 -544230000 -251604424 -287055600
        -1026962981 -1164328941 1225190203 -143163609</internalNodes>
      <leafValues>
        -3.9827862381935120e-01 1.8069170415401459e-01</leafValues></_>
    <_>
      <internalNodes>
        0 -1 80910 -182718773 -621733223 1098939213 2102245647
        -393527569 -1977020318 1394011701 804257421</internalNodes>
      <leafValues>
        -4.1736376285552979e-01 2.0673881471157074e-01</leafValues></_>
    <_>
      <internalNodes>
        0 -1 2640794 -70794208 -480196478 -868216574 -1383552294
        -201622813 1943900867 -527959643 -39978085</internalNodes>
      <leafValues>
        -3.3550849556922913e-01 2.5813558697700500e-01</leafValues></_>
    <_>
      <internalNodes>
        0 -1 544857 171593216 -83717440 176478704 -1312263552 730040826
        -17055653 -507910212 -572566147</internalNodes>
      <leafValues>
        -4.1626146435737610e-01 2.1148639917373657e-01</leafValues></_>
    <_>
      <internalNodes>
        0 -1 599968 1171227084 -585136862 1529977524 -574739456
        1405341017 1492666635 -1701095013 1493846057</internalNodes>
      <leafValues>
        -4.0453308820724487e-01 2.1123914420604706e-01</leafValues></_>
    <_>
      <internalNodes>
        0 -1 159925 -57542096 804057084 -10944646 -684097944 -18490375
        -579652696 -558678086 1610349835</internalNodes>
      <leafValues>
        -2.4545501172542572e-01 3.5483735799789429e-01</leafValues></_>
    <_>
      <internalNodes>
        0 -1 3613807 468759447 -797181081 -1622009524 74833829
        1536596567 -1799636819 -68604902 1274227647</internalNodes>
      <leafValues>
        -4.7374603152275085e-01 1.6511726379394531e-01</leafValues></_>
    <_>
      <internalNodes>
        0 -1 3107 -701312770 1157416084 -467746658 250368205 -15318772
        -762361185 104547119 1567737299</internalNodes>
      <leafValues>
        -4.5468455553054810e-01 1.7584757506847382e-01</leafValues></_>
    <_>
      <internalNodes>
        0 -1 3612981 -1567905630 -2146958674 -758178175 1177918652
        372169968 -1737964092 1029626179 -793785637</internalNodes>
      <leafValues>
        -2.7110403776168823e-01 3.1943660974502563e-01</leafValues></_>
    <_>
      <internalNodes>
        0 -1 2176889 -1259708912 417304822 1623466508 1422154712
        -800694204 -12412391 -1262425560 1042545598</internalNodes>
      <leafValues>
        -4.8283368349075317e-01 1.7239548265933990e-01</leafValues></_>
    <_>
      <internalNodes>
        0 -1 164674 -554763881 -67930749 1959123278 -278275301
        1551993480 1820346860 1387260927 1058403707</internalNodes>
      <leafValues>
        -4.1570019721984863e-01 1.7588789761066437e-01</leafValues></_>
    <_>
      <internalNodes>
        0 -1 3491520 -47515518 -1744056278 -877695359 -1026928146
        -608198966 111081312 965959060 -2133076085</internalNodes>
      <leafValues>
        -2.8271767497062683e-01 2.8630712628364563e-01</leafValues></_>
    <_>
      <internalNodes>
        0 -1 1361996 1445951437 1998626789 -1892683777 1325788987
        -543817857 -10879185 515419819 -1151213747</internalNodes>
      <leafValues>
        -2.1462906897068024e-01 3.8625234365463257e-01</leafValues></_>
    <_>
      <internalNodes>
        0 -1 155405 -2075472832 2109366869 -1106919024 -1403223460
        -578545592 -930031487 -789264516 1252810196</internalNodes>
      <leafValues>
        -5.7111966609954834e-01 1.3209055364131927e-01</leafValues></_>
    <_>
      <internalNodes>
        0 -1 2799076 -187408278 -521114968 1120202812 -204939210
        2130544812 1356990444 264828618 -1500539702</internalNodes>
      <leafValues>
        -2.7336806058883667e-01 3.1073382496833801e-01</leafValues></_></weakClassifiers></stage10>
</opencv_storage>
