<?xml version="1.0"?>
<opencv_storage>
<stage8>
  <maxWeakCount>16</maxWeakCount>
  <stageThreshold>-1.3324991464614868e+00</stageThreshold>
  <weakClassifiers>
    <_>
      <internalNodes>
        0 -1 392777 -393217 -35925097 -538715729 -33569889 -549716757
        -75636018 -124911618 2146434991</internalNodes>
      <leafValues>
        -5.8858078718185425e-01 3.7313431967049837e-03</leafValues></_>
    <_>
      <internalNodes>
        0 -1 1499008 -1073742028 -706907907 835740020 -48246723
        -190385775 -57421159 1951512509 -1392783361</internalNodes>
      <leafValues>
        -3.5835200548171997e-01 3.1568315625190735e-01</leafValues></_>
    <_>
      <internalNodes>
        0 -1 112050 -8389221 1873804194 817311616 -68703764 -8388633
        -543302116 1869064178 -2049</internalNodes>
      <leafValues>
        -2.2720864415168762e-01 4.3911415338516235e-01</leafValues></_>
    <_>
      <internalNodes>
        0 -1 3616503 -1744830509 -604192813 -84296865 201055063
        2079373168 -638362697 804831039 198426495</internalNodes>
      <leafValues>
        -4.2267248034477234e-01 2.1650552749633789e-01</leafValues></_>
    <_>
      <internalNodes>
        0 -1 3605690 -138944486 -587763893 1081798272 -253631506
        1755794510 -1603437137 -1999058297 -187960453</internalNodes>
      <leafValues>
        -2.5246855616569519e-01 3.9071065187454224e-01</leafValues></_>
    <_>
      <internalNodes>
        0 -1 2107212 -649057790 2024933448 1109660320 -247848383
        -478953408 1277251603 -2074898204 -1022416161</internalNodes>
      <leafValues>
        -2.9787963628768921e-01 2.8947582840919495e-01</leafValues></_>
    <_>
      <internalNodes>
        0 -1 68621 -429929944 2008538493 1510400223 -1673078113
        -938472712 998880138 -128423059 -425787393</internalNodes>
      <leafValues>
        -3.0643260478973389e-01 2.8518235683441162e-01</leafValues></_>
    <_>
      <internalNodes>
        0 -1 128 1953723543 1602206737 -1717902116 1407573961 -629529669
        -1201547070 2091740127 2137253707</internalNodes>
      <leafValues>
        -3.3177146315574646e-01 3.0142271518707275e-01</leafValues></_>
    <_>
      <internalNodes>
        0 -1 3557239 1715603030 -307897838 -784154361 -1701927145
        1358667850 -70278483 1657701009 -1469059081</internalNodes>
      <leafValues>
        -3.8169708847999573e-01 2.4539253115653992e-01</leafValues></_>
    <_>
      <internalNodes>
        0 -1 2591660 -39942648 -300109490 -1910906764 -679925452
        -686804130 287071328 -1001427712 -1871773632</internalNodes>
      <leafValues>
        -3.1971287727355957e-01 2.7512091398239136e-01</leafValues></_>
    <_>
      <internalNodes>
        0 -1 4362 -307790410 -891101054 1175246708 2138013828 2141846409
        -84492237 1950593857 1609561830</internalNodes>
      <leafValues>
        -4.1018813848495483e-01 2.1113251149654388e-01</leafValues></_>
    <_>
      <internalNodes>
        0 -1 3535019 -549231094 -221930523 1363937554 -179420886
        -417816753 965905362 -610353259 2139749693</internalNodes>
      <leafValues>
        -3.7948682904243469e-01 2.2222946584224701e-01</leafValues></_>
    <_>
      <internalNodes>
        0 -1 1465824 2145507018 -1083252630 450444878 -500289257
        -24117509 -505122490 -337647657 -745789363</internalNodes>
      <leafValues>
        -3.2620692253112793e-01 2.8101593255996704e-01</leafValues></_>
    <_>
      <internalNodes>
        0 -1 3613806 1976081909 1106346143 -68292734 32542665 227970969
        -1078412309 -1492582646 130060267</internalNodes>
      <leafValues>
        -5.4860514402389526e-01 1.7666733264923096e-01</leafValues></_>
    <_>
      <internalNodes>
        0 -1 2760540 -220417376 -909344589 580790288 -532701084
        -1842223962 -434560768 1463875250 -209022580</internalNodes>
      <leafValues>
        -2.8460818529129028e-01 3.2369500398635864e-01</leafValues></_>
    <_>
      <internalNodes>
        0 -1 3267503 -1284539653 289143843 -1275219141 -1653870081
        1560016127 -1783104385 -831006741 -1060114457</internalNodes>
      <leafValues>
        -2.1446114778518677e-01 4.6036568284034729e-01</leafValues></_></weakClassifiers></stage8>
</opencv_storage>
