<?xml version="1.0"?>
<opencv_storage>
<stage9>
  <maxWeakCount>17</maxWeakCount>
  <stageThreshold>-1.4080969095230103e+00</stageThreshold>
  <weakClassifiers>
    <_>
      <internalNodes>
        0 -1 3226166 -1669476821 -8702406 -1974988202 473841909
        -23240692 -17250145 -20252020 -26224161</internalNodes>
      <leafValues>
        -6.3318186998367310e-01 -7.8064709901809692e-02</leafValues></_>
    <_>
      <internalNodes>
        0 -1 159802 -137764865 -2647102 -716310202 -1082262097 -51140609
        -1511262034 -135599329 2013264895</internalNodes>
      <leafValues>
        -3.7738487124443054e-01 2.3634789884090424e-01</leafValues></_>
    <_>
      <internalNodes>
        0 -1 87476 -1438085200 -293053760 -2029457183 -75239596
        -875364944 -68984444 -1148683826 -807403531</internalNodes>
      <leafValues>
        -4.2849510908126831e-01 2.0871226489543915e-01</leafValues></_>
    <_>
      <internalNodes>
        0 -1 832718 -251941944 -670641631 419486832 -140550913
        -821052725 1158529035 -338863137 871992751</internalNodes>
      <leafValues>
        -3.4297850728034973e-01 2.6339864730834961e-01</leafValues></_>
    <_>
      <internalNodes>
        0 -1 152953 -322517661 -1658913929 -572871171 -541137400
        1123305676 -838022726 -289912610 -805680588</internalNodes>
      <leafValues>
        -2.8967392444610596e-01 3.0354577302932739e-01</leafValues></_>
    <_>
      <internalNodes>
        0 -1 3616506 266919807 -2229361 -674337841 30596831 251182014
        -1088946689 -68482534 133382139</internalNodes>
      <leafValues>
        -4.6696320176124573e-01 1.7979326844215393e-01</leafValues></_>
    <_>
      <internalNodes>
        0 -1 77354 -604582776 2144210190 -393092544 620654746
        -1666463736 2023063592 -37094904 -363432966</internalNodes>
      <leafValues>
        -4.2092955112457275e-01 2.1567739546298981e-01</leafValues></_>
    <_>
      <internalNodes>
        0 -1 2833320 -1962867584 -2075268566 190584368 -1826324424
        -2098088444 1314836 2126276 -1861279096</internalNodes>
      <leafValues>
        -3.9697623252868652e-01 2.0914869010448456e-01</leafValues></_>
    <_>
      <internalNodes>
        0 -1 2612714 -408226083 -1760443380 1493188893 1025006377
        -582419747 687882374 -1404179577 1361837927</internalNodes>
      <leafValues>
        -3.0829593539237976e-01 2.8200924396514893e-01</leafValues></_>
    <_>
      <internalNodes>
        0 -1 3614135 199278545 1607057219 525819294 1164981023 466651162
        -1946358278 -536892898 266457087</internalNodes>
      <leafValues>
        -4.7928825020790100e-01 1.8315021693706512e-01</leafValues></_>
    <_>
      <internalNodes>
        0 -1 3613087 -533732857 -1288951244 1915442661 -222691350
        -54591782 1327415180 1130336156 -134219115</internalNodes>
      <leafValues>
        -2.1007771790027618e-01 4.4798269867897034e-01</leafValues></_>
    <_>
      <internalNodes>
        0 -1 3455622 -88418238 364595298 812684336 525287528 -452980224
        -2127926752 1404229035 -769940597</internalNodes>
      <leafValues>
        -2.7826711535453796e-01 3.1689760088920593e-01</leafValues></_>
    <_>
      <internalNodes>
        0 -1 22138 -1540472065 399741337 1385423634 561336783 1141949128
        -132537717 -1056769 -151939709</internalNodes>
      <leafValues>
        -2.7036780118942261e-01 3.0115363001823425e-01</leafValues></_>
    <_>
      <internalNodes>
        0 -1 2901956 667798254 -904142769 949348034 -1382192289
        664516095 -712371480 -1945541560 -62925421</internalNodes>
      <leafValues>
        -2.8212517499923706e-01 2.9888752102851868e-01</leafValues></_>
    <_>
      <internalNodes>
        0 -1 238334 -137429907 -459614156 -1793775993 -346299711
        -91021089 -1752343986 -118031572 1901389803</internalNodes>
      <leafValues>
        -4.2887321114540100e-01 2.1851524710655212e-01</leafValues></_>
    <_>
      <internalNodes>
        0 -1 1898274 -862403456 152698888 1619114568 408180481
        -1851522432 119787052 37880402 -2113715114</internalNodes>
      <leafValues>
        -4.0104955434799194e-01 2.1542258560657501e-01</leafValues></_>
    <_>
      <internalNodes>
        0 -1 53735 -539796229 -1414793729 1485132580 2016934874
        -839227704 -1040170042 -582424866 -932000217</internalNodes>
      <leafValues>
        -2.8433001041412354e-01 2.9530119895935059e-01</leafValues></_></weakClassifiers></stage9>
</opencv_storage>
