<?xml version="1.0"?>
<opencv_storage>
<stage11>
  <maxWeakCount>18</maxWeakCount>
  <stageThreshold>-1.3655668497085571e+00</stageThreshold>
  <weakClassifiers>
    <_>
      <internalNodes>
        0 -1 80828 -10765377 -164354 -1081618849 -44051471 -917930001
        -1615215957 -1473258241 2080358395</internalNodes>
      <leafValues>
        -5.3211462497711182e-01 4.1439477354288101e-03</leafValues></_>
    <_>
      <internalNodes>
        0 -1 25766 -1926517070 -479922014 -2129240640 -219816974
        1136565202 899271601 1199530275 -134224969</internalNodes>
      <leafValues>
        -4.2864513397216797e-01 2.1311216056346893e-01</leafValues></_>
    <_>
      <internalNodes>
        0 -1 691432 -287375406 -1831729776 -1722786928 399557074
        -643512629 -320874361 -922063904 -621870283</internalNodes>
      <leafValues>
        -2.8680363297462463e-01 2.7817332744598389e-01</leafValues></_>
    <_>
      <internalNodes>
        0 -1 0 2128280979 -140648413 545506937 -270852663 -372723793
        975374763 -1964442627 1872727899</internalNodes>
      <leafValues>
        -3.7747001647949219e-01 2.0030593872070312e-01</leafValues></_>
    <_>
      <internalNodes>
        0 -1 3134465 -1501532544 -150941904 -1793965677 -1224573390
        931361729 -1624014461 558127577 -1481245711</internalNodes>
      <leafValues>
        -3.7489697337150574e-01 2.4774743616580963e-01</leafValues></_>
    <_>
      <internalNodes>
        0 -1 309065 -102841270 -118060954 -361855475 1626971176
        -2023945472 925773353 -1543051283 -212342937</internalNodes>
      <leafValues>
        -2.7971762418746948e-01 2.9183325171470642e-01</leafValues></_>
    <_>
      <internalNodes>
        0 -1 3287817 -358942592 -488935224 -1056366000 -803733242
        -496718646 302556193 339792266 -783613765</internalNodes>
      <leafValues>
        -3.0917242169380188e-01 2.5806832313537598e-01</leafValues></_>
    <_>
      <internalNodes>
        0 -1 2195058 1928700326 407234045 1895794347 -1768514174
        -1461804561 306465779 649743150 -1241766106</internalNodes>
      <leafValues>
        -2.9108640551567078e-01 2.7332317829132080e-01</leafValues></_>
    <_>
      <internalNodes>
        0 -1 3616489 265338827 -671089697 -35741924 483512857 165739435
        -1347904578 -473433344 183909241</internalNodes>
      <leafValues>
        -4.8851445317268372e-01 1.6040863096714020e-01</leafValues></_>
    <_>
      <internalNodes>
        0 -1 241 145001472 189862400 -396996517 611520528 -1809600054
        -620158813 -742139337 1400340343</internalNodes>
      <leafValues>
        -6.0025173425674438e-01 1.3193045556545258e-01</leafValues></_>
    <_>
      <internalNodes>
        0 -1 1853211 -793189588 413286356 -1285132892 -1314930784
        -285368652 -273369627 1146477996 -1522125730</internalNodes>
      <leafValues>
        -2.4854384362697601e-01 3.0684912204742432e-01</leafValues></_>
    <_>
      <internalNodes>
        0 -1 3365966 -939367936 -225694336 1241760819 -1618427264
        848857983 818937877 1482292724 2107422973</internalNodes>
      <leafValues>
        -4.0344029664993286e-01 1.8463221192359924e-01</leafValues></_>
    <_>
      <internalNodes>
        0 -1 2508608 -502755168 1393078981 317298710 1905864415
        915578936 358122105 -1220436734 -214256662</internalNodes>
      <leafValues>
        -2.5246548652648926e-01 2.9850533604621887e-01</leafValues></_>
    <_>
      <internalNodes>
        0 -1 159922 -131010640 -349201388 -610897473 -482159490
        -198355250 -14761673 -154273384 2141183963</internalNodes>
      <leafValues>
        -2.4565073847770691e-01 3.2475093007087708e-01</leafValues></_>
    <_>
      <internalNodes>
        0 -1 3527298 -337687032 1983234287 743164116 1611223693
        -884563377 -1610370018 1242802604 -252974153</internalNodes>
      <leafValues>
        -3.4235614538192749e-01 2.3409722745418549e-01</leafValues></_>
    <_>
      <internalNodes>
        0 -1 3613890 51572347 1476319199 -1356912677 113279761 114464707
        -289794001 -103040247 265513603</internalNodes>
      <leafValues>
        -5.1250463724136353e-01 1.5956047177314758e-01</leafValues></_>
    <_>
      <internalNodes>
        0 -1 3219790 -684850496 -898654080 327305835 -712011584
        -17824672 1160140998 254337943 -1228252022</internalNodes>
      <leafValues>
        -3.1201598048210144e-01 2.5532919168472290e-01</leafValues></_>
    <_>
      <internalNodes>
        0 -1 168496 -1906104544 -496793344 1162317824 688191664
        1635920854 -507866480 -351354124 -1114905962</internalNodes>
      <leafValues>
        -4.0636324882507324e-01 1.9466717541217804e-01</leafValues></_></weakClassifiers></stage11>
</opencv_storage>
