<?xml version="1.0"?>
<opencv_storage>
<stage6>
  <maxWeakCount>12</maxWeakCount>
  <stageThreshold>-1.3258671760559082e+00</stageThreshold>
  <weakClassifiers>
    <_>
      <internalNodes>
        0 -1 1 -102761473 -2622213 -586226987 -175117795 -19931953
        -102900573 -6341665 2147483519</internalNodes>
      <leafValues>
        -6.0085785388946533e-01 9.9705509841442108e-02</leafValues></_>
    <_>
      <internalNodes>
        0 -1 14890 -827326749 -295441174 -203563390 -546310718
        -274727961 -19925785 2008938471 -203958345</internalNodes>
      <leafValues>
        -4.3862017989158630e-01 2.7953514456748962e-01</leafValues></_>
    <_>
      <internalNodes>
        0 -1 3427178 -989678048 2047593185 -536153967 979364799
        -2011121632 -68959570 -1364934991 1027599871</internalNodes>
      <leafValues>
        -5.4623425006866455e-01 2.1587164700031281e-01</leafValues></_>
    <_>
      <internalNodes>
        0 -1 1232 -1258604640 -1147423797 551694369 -170446729 -1608783
        -1450923544 -1332022785 1432219614</internalNodes>
      <leafValues>
        -4.5928683876991272e-01 2.4170990288257599e-01</leafValues></_>
    <_>
      <internalNodes>
        0 -1 3616512 -617545745 -13369362 1536940911 99868155 -961536583
        -1397572673 -2245745 264400571</internalNodes>
      <leafValues>
        -4.4457331299781799e-01 2.7112343907356262e-01</leafValues></_>
    <_>
      <internalNodes>
        0 -1 65396 -102799778 -1195515244 43178052 -603269026
        -1073086400 1575575890 1385040490 -236001513</internalNodes>
      <leafValues>
        -4.1125467419624329e-01 2.7592518925666809e-01</leafValues></_>
    <_>
      <internalNodes>
        0 -1 3166525 -292880768 -1358921048 547656369 -2084181056
        1677514665 -1894780150 162166832 -908079135</internalNodes>
      <leafValues>
        -4.2582458257675171e-01 2.4507157504558563e-01</leafValues></_>
    <_>
      <internalNodes>
        0 -1 3613848 431007723 -824197633 -547651837 1509059889
        463010746 -1074533202 -70586438 263302043</internalNodes>
      <leafValues>
        -4.7433590888977051e-01 2.1511457860469818e-01</leafValues></_>
    <_>
      <internalNodes>
        0 -1 56958 1441743847 -685310507 1570363741 -1045248 1155353807
        -861385509 -644273940 1336298151</internalNodes>
      <leafValues>
        -4.1037479043006897e-01 2.6458358764648438e-01</leafValues></_>
    <_>
      <internalNodes>
        0 -1 1456729 1733491118 1425484947 -2096491526 -83265654
        -1275085187 1934409921 -553935162 -2020768881</internalNodes>
      <leafValues>
        -3.2530993223190308e-01 3.2269874215126038e-01</leafValues></_>
    <_>
      <internalNodes>
        0 -1 3558203 -668332962 -690044342 -402065394 -742328710
        1926121802 281976843 -263288662 2082393415</internalNodes>
      <leafValues>
        -4.6887257695198059e-01 2.1346296370029449e-01</leafValues></_>
    <_>
      <internalNodes>
        0 -1 3286728 -132087616 553660464 1112740418 1352664192
        -1002387192 1146096448 42242307 -2129780374</internalNodes>
      <leafValues>
        -4.2727327346801758e-01 2.3190428316593170e-01</leafValues></_></weakClassifiers></stage6>
</opencv_storage>
