<?xml version="1.0"?>
<opencv_storage>
<stage13>
  <maxWeakCount>18</maxWeakCount>
  <stageThreshold>-1.4067405462265015e+00</stageThreshold>
  <weakClassifiers>
    <_>
      <internalNodes>
        0 -1 236912 -9437750 -9522930 -1690166236 -538077177 -1886736178
        1293871289 -880686129 -136333649</internalNodes>
      <leafValues>
        -6.3485854864120483e-01 -1.1760808527469635e-02</leafValues></_>
    <_>
      <internalNodes>
        0 -1 2912600 -1434009522 -1197363077 -637479924 -690699690
        1247443016 -190262552 1355393738 -101193089</internalNodes>
      <leafValues>
        -3.3779525756835938e-01 1.7966012656688690e-01</leafValues></_>
    <_>
      <internalNodes>
        0 -1 3613932 265334525 -78546441 -1441195665 160465343
        -1895777601 -269413 -271130853 66068094</internalNodes>
      <leafValues>
        -4.8599120974540710e-01 1.4508390426635742e-01</leafValues></_>
    <_>
      <internalNodes>
        0 -1 3611128 201327616 1342276363 -1073725167 67322241 8947725
        -2147385344 -1610440506 -1565529483</internalNodes>
      <leafValues>
        -4.8167204856872559e-01 1.8161998689174652e-01</leafValues></_>
    <_>
      <internalNodes>
        0 -1 2227053 -234882388 -1647734577 -1878761168 1025025312
        -1725714204 80578574 -301872728 832933570</internalNodes>
      <leafValues>
        -3.1661325693130493e-01 2.4114367365837097e-01</leafValues></_>
    <_>
      <internalNodes>
        0 -1 3238040 -1356283392 -117816808 1351838032 -735370624
        -2105516024 877986509 -2114481969 -1497691361</internalNodes>
      <leafValues>
        -2.6469996571540833e-01 2.7581912279129028e-01</leafValues></_>
    <_>
      <internalNodes>
        0 -1 3616507 223407055 -140547911 -954090119 265344435 243731807
        2143280894 -288363912 1877737434</internalNodes>
      <leafValues>
        -3.7576839327812195e-01 1.8540333211421967e-01</leafValues></_>
    <_>
      <internalNodes>
        0 -1 2762999 -750761814 -570408374 -1656748958 -771192190
        -1283244289 1431431367 -493177375 -1191224357</internalNodes>
      <leafValues>
        -3.3389946818351746e-01 2.4287375807762146e-01</leafValues></_>
    <_>
      <internalNodes>
        0 -1 857986 -1562621378 136057425 1779660869 399971904 182577413
        -272332009 2099458311 14994900</internalNodes>
      <leafValues>
        -4.3114915490150452e-01 1.7829462885856628e-01</leafValues></_>
    <_>
      <internalNodes>
        0 -1 2274 -2030148054 -2136947630 -536598492 1652867536
        -1820295313 -486372848 -787444758 1912862861</internalNodes>
      <leafValues>
        -6.0113841295242310e-01 1.0681860148906708e-01</leafValues></_>
    <_>
      <internalNodes>
        0 -1 55842 -671396777 1474604079 -214721050 -1848705797
        1326913484 113842172 -1341985851 -246223541</internalNodes>
      <leafValues>
        -2.5287953019142151e-01 2.9379209876060486e-01</leafValues></_>
    <_>
      <internalNodes>
        0 -1 159773 -202356309 1546117141 119652493 -1480642600
        -897144580 -357652253 1327299123 2147277759</internalNodes>
      <leafValues>
        -3.7577870488166809e-01 1.9211210310459137e-01</leafValues></_>
    <_>
      <internalNodes>
        0 -1 2641275 -701322000 600457447 1509985816 2047101992
        -88061808 810625041 -492200131 -1084615712</internalNodes>
      <leafValues>
        -2.5967335700988770e-01 3.2390621304512024e-01</leafValues></_>
    <_>
      <internalNodes>
        0 -1 2996109 -802661248 2041223440 -1971189214 1091063884
        -1442209590 310890120 -583462758 -2128858658</internalNodes>
      <leafValues>
        -2.7653399109840393e-01 2.6308131217956543e-01</leafValues></_>
    <_>
      <internalNodes>
        0 -1 3388810 1227144738 287347110 1073811841 -642510663 47949235
        -358549313 -762651789 1067989756</internalNodes>
      <leafValues>
        -3.8721343874931335e-01 1.9796879589557648e-01</leafValues></_>
    <_>
      <internalNodes>
        0 -1 1615868 -890645530 -76137428 1635407089 -653705103
        -222196352 -2135454648 826650799 -546421106</internalNodes>
      <leafValues>
        -2.2893629968166351e-01 3.4883117675781250e-01</leafValues></_>
    <_>
      <internalNodes>
        0 -1 3614660 115396552 -268602625 -476620085 55125 34911734
        -2031601929 -876678966 2159232</internalNodes>
      <leafValues>
        -4.7331467270851135e-01 1.7090183496475220e-01</leafValues></_>
    <_>
      <internalNodes>
        0 -1 2115458 -960841592 -1438746614 -836757390 -607137650
        -1698785238 241330388 -1433414422 -1011887074</internalNodes>
      <leafValues>
        -2.7522462606430054e-01 2.7552169561386108e-01</leafValues></_></weakClassifiers></stage13>
</opencv_storage>
